2252 100
， -1.1767634 -0.18531387 -0.20487013 -0.13695589 0.5773454 -1.5232472 -0.28538668 -0.04469626 0.3028503 1.1331911 -0.11930886 -0.26151764 0.34883597 0.31495523 -0.52094716 -0.1395796 0.14601475 -0.6139182 -0.81289107 -0.39488852 -0.9488813 -0.713467 0.31201476 0.19372095 0.058227573 -0.33886746 0.58182764 0.026221013 -0.22787611 0.6016786 -0.40747657 0.23748094 -0.48326278 0.06688705 0.06568732 0.6216657 0.25836012 0.18416809 0.9297338 -0.8385545 0.527459 0.19862312 -0.33857027 0.71094936 0.381242 -0.20381196 -0.252389 -0.4872611 0.7249097 -0.4178434 0.86934006 0.054541845 -0.16337363 0.70750153 -0.9223168 0.22495674 0.271837 0.5162833 -0.56086355 -0.054924753 0.15338603 0.7460686 -0.2627453 0.003339984 0.51580906 -0.00630023 -0.72294384 -0.32805866 -0.5563912 -0.069623105 -0.9757469 -0.11401616 -0.49108005 0.4079915 -0.04171161 0.67936057 0.28597635 0.21597826 -0.5013452 0.48096055 0.62189597 0.6190484 0.17692953 -0.290882 0.12553458 0.13092367 0.370558 -0.74488944 -0.00093233935 -0.2394396 0.6188107 -0.024433305 0.008778608 -0.18033737 0.99571276 0.03849795 -0.14454448 0.2724528 0.08426618 0.20123515
。 -1.4930295 0.10901759 0.11626657 -0.9997758 1.385478 -1.0927423 -0.9562158 0.29340476 -0.33745942 0.016211834 -0.08739279 0.033812046 -0.00020495741 0.57836807 -0.5475045 0.15500325 0.72742 0.31008074 0.25278062 0.9002629 0.1388898 -0.6721595 0.42718127 1.4729966 -0.5005241 -0.8718256 1.356201 -0.0053135534 0.51297265 0.18778037 -0.21736547 0.5852345 -0.90286994 -0.87406796 0.36439642 0.07264937 -0.20874402 0.1473345 0.62427133 0.432783 -0.3876126 -0.27743235 -1.0820819 0.5284185 1.1549906 -0.17062296 -0.18724103 -0.9434159 0.52747446 -1.1748872 0.62854904 0.8300288 -0.483469 0.7576271 -0.50978017 -0.3190796 0.6362893 0.534459 -1.3308117 1.0579057 0.86886996 0.102389865 0.2838293 -0.65582985 -0.18268149 0.13629101 -0.17619531 -0.42785764 -0.043128528 -0.7345466 0.010173765 -0.8540437 -0.5861671 0.79701316 -0.5452821 0.02817601 0.38829553 -0.11023956 -0.3028669 0.77444005 0.31174916 -0.16606194 -0.34383115 -0.40749863 -0.41303542 -0.09554842 1.0213596 -0.214179 -0.14138262 0.25646204 -0.5138632 -0.18727683 -0.7940681 -1.3555211 0.13443291 0.71778077 -1.0919307 0.83694404 0.46423873 0.65741086
不 0.7087113 -0.6169907 -0.56221974 -0.2724154 0.08354003 0.63752633 -0.31626728 0.26625976 -0.25759256 -0.35175264 0.9965446 -0.55329144 1.0186585 -0.5231263 -1.5098381 -0.54502404 -0.25071836 -0.29560113 -0.7105107 1.2855129 -0.47965503 0.4235334 1.2026651 -0.052392833 0.045819346 0.45890668 0.99157774 -0.8700258 0.033127137 0.27968976 0.23046114 -1.0114287 0.004854663 0.14274265 0.20560274 -0.1547368 0.3863001 0.57965815 0.060977913 0.47797132 -0.6053919 -0.60627097 0.009126889 0.26467687 -0.5659917 -0.20444755 0.13624333 -0.81701493 0.19443816 0.49630713 0.4238908 0.3932605 -0.26356897 1.037004 -1.2775391 -1.1068285 0.22153388 0.3682747 -0.7579759 -0.14267854 1.3712 -0.2263358 1.2322794 0.6093892 0.6703636 0.5040507 0.053882137 -1.0819542 -0.464859 -0.19629656 -0.7497062 -1.4288954 0.46762225 1.0164956 -0.28355756 -0.889527 0.916398 -0.26856145 -0.08415142 0.77497435 -0.59061855 0.28260988 0.49106017 -0.5284198 -1.2179359 -1.1761595 -0.48215264 0.6231318 1.0768853 1.5849459 0.7851405 -0.7417926 0.111702815 0.80106884 0.14141548 -0.32112926 1.2162188 1.2149191 -0.586473 -0.50444835
血 -0.032567784 0.15698083 0.75151217 -0.7715204 -0.91327274 -0.2202853 -0.35281762 0.15210219 -0.0108924415 0.5469971 -0.16793674 -0.12971145 0.38138732 -1.4560043 -0.6110329 1.1355522 0.15031677 -0.568707 -0.078287244 -0.008329223 0.119961455 0.97756577 0.6691644 0.42729798 -0.17741527 0.5714107 1.3641764 -0.95070684 -0.23731305 0.11607371 1.3487049 -0.22600791 0.29777393 0.083836965 -0.21014577 -0.23640236 0.3874155 -0.32118687 0.8338636 0.06304574 -0.067183755 -1.5276916 -0.07832066 1.04977 0.15003811 -0.77463657 0.074939065 -1.331489 -0.010001864 0.065723546 -0.023538407 1.1401271 -0.8867938 1.0646977 -0.10661607 1.3402443 -0.23095277 -0.47506267 -1.1670552 -0.2941485 -0.2791021 1.0981084 0.2731094 -0.781826 0.6223181 -0.3076313 0.8010157 0.4698964 -0.100265265 -0.16079803 0.11423006 0.048594505 -0.7197011 -0.15717863 -0.7000535 -0.77150756 0.17653337 0.5212595 0.64059913 0.76001394 0.83666784 -0.65718865 -0.14601746 -0.013008946 0.32830825 -0.03862142 0.0808406 0.7733016 -0.108960636 1.22232 0.16808958 0.5696299 0.15790959 -1.2459626 -0.0758656 0.994828 -0.7425284 -0.39875132 0.54168737 1.5672065
痛 0.92979294 -1.5459058 0.29717636 -0.090508476 0.6447545 -0.36497596 -0.23252758 0.9473864 0.28338525 -0.20045714 0.6646991 0.050236594 -0.8387999 -0.65733856 -0.24338838 0.5231115 -1.1896921 -1.0033703 0.6141035 -1.1811486 0.47013605 -0.5662098 -0.8696952 0.9107358 -0.31289992 0.10273497 0.46721303 -0.7500493 0.6733841 0.26455346 -0.5466775 -0.27958897 -0.85626036 0.6392139 -1.2887186 0.9113446 -0.32237804 -0.02925837 -0.3334833 0.44133145 -1.5778341 -0.9040455 -0.19800016 -0.267475 -0.34965324 -0.33064038 0.01933123 -1.6089445 -0.07702678 0.516975 0.3855124 0.06044464 -0.33599365 -0.095006056 -0.20442702 -1.3842496 0.4779472 0.71170866 -0.3673994 -0.0994449 0.46948007 -0.8089878 -0.4441365 -0.40514013 0.9437003 0.94834906 -0.5715735 0.18049169 0.077614106 -0.92307633 -0.28206515 0.70370084 0.45850605 1.2014315 0.33894703 -0.7563707 0.89397705 -0.018435923 -0.42653033 -0.11745667 0.08118154 0.07816413 -0.6007937 0.048539452 -0.18564533 -0.9756332 -0.18110934 0.09009117 -0.16929246 0.1722529 0.30888358 0.53280056 -0.0015809352 0.29159504 0.6378897 0.97123563 -0.105604015 -0.79697526 -0.6671702 0.29728964
气 0.18535957 -0.09355943 -0.054245356 -0.23378405 0.01933879 -0.9073789 -0.37022784 -0.80025893 -0.21694602 0.59308076 -0.51893795 0.43665963 0.7276812 0.65718305 -0.37101707 0.5895135 0.52360195 -0.64677566 0.79017377 0.33567333 0.04377614 0.7338471 0.5755328 0.3715193 0.7896913 -0.33668703 -0.35564008 -0.5075486 0.02439782 0.73216295 0.4761365 -1.2454014 0.13749385 -0.6689127 -0.4273138 -0.37239397 -0.03379613 0.09484561 -0.6846894 0.97470194 -0.10189145 -1.5470395 1.1293283 -0.011198415 0.81516534 -0.21039894 -0.64693487 0.7790596 -0.15033345 -0.34955105 0.86022866 0.66471756 -0.57475257 0.45407197 -1.4788753 0.41265023 0.21102564 -0.04600089 -0.5061357 0.2704802 0.9339748 0.110618874 -0.18328768 -1.1692532 -0.28455186 0.31932598 1.2084202 -0.9057197 -0.06159049 0.036096726 -0.32988182 -0.36299282 -0.08859359 0.9939453 0.39133385 -0.24319004 -0.03350479 0.53846425 -0.2592313 0.6346046 -0.30510595 0.14321806 -0.09763692 -0.16539752 0.89175177 0.04176826 0.15702489 0.4714136 -0.5409415 0.178425 -0.42578033 -0.23881751 -0.31840545 0.10620379 0.83798045 0.75545263 0.43533686 0.04579061 -0.7248277 0.64311063
妇 0.018511945 -2.213066 -0.3064655 -0.8069027 -0.045717068 -0.76497287 -0.24001588 0.22077514 -0.48263445 0.23630661 -1.9159455 0.08856129 0.7772148 -0.4985986 -1.2082301 0.045430727 1.1737715 1.0284648 0.048406266 0.3346943 0.33260378 -0.18720675 0.5932931 0.16142201 -0.67286325 -0.62345165 0.5520443 -0.21343482 -0.64995533 -1.2699343 0.033149753 -0.27495164 0.655187 -0.13939214 -0.5832322 -0.034812205 -0.01669554 0.167747 -0.16344911 0.15175074 -0.45702875 -1.6194501 0.13623351 0.8869335 -0.28880936 0.6270293 0.10699585 -1.5864961 -0.62044346 -0.26127967 0.12512863 1.2913427 -0.71064335 1.177804 -0.44096455 -0.6560681 1.0127201 0.5346325 -0.819383 0.1395307 0.19141456 -0.83818126 -0.36062673 -1.2213209 -0.7350344 0.016146012 -0.6501945 -0.43849698 -0.4587519 -0.35125968 -0.52479243 0.44761145 -0.7349488 -0.32923487 -0.05472214 0.08711989 1.6663592 0.69578123 -0.6394756 -0.18613118 -0.33022323 0.28792882 -1.2862937 0.6090059 -0.55582625 0.71326137 0.6520688 0.69141334 1.6046363 0.090001054 -0.1550963 0.082744166 -0.28338665 -0.22690132 0.38661256 0.30077252 -0.40207207 -1.4129233 0.5243461 0.8596604
人 -0.75305706 -0.8128117 0.4572212 0.76686627 -0.7474882 -0.45751727 0.5039519 -0.024948096 -0.16735743 -0.44292286 1.1648128 0.29689366 0.89026326 -0.5014896 -0.72550577 0.5027388 0.8814665 -1.9763858 0.7040961 1.1664068 -0.020725729 -0.14793636 -0.029290205 -0.7810151 1.2461272 -1.0327045 -0.24437015 -0.72619504 0.7072666 0.18035789 0.2409904 0.723475 0.11653332 0.93905956 1.2448213 -0.21076773 -0.057593863 -0.5581014 0.8216395 0.5797554 -1.2419901 -1.0549512 0.17998636 0.2767184 -0.84051 -0.8964269 -0.1332179 -0.7517303 -0.42592344 0.04771168 0.21199703 0.5521272 -0.029889343 0.54953706 -0.20841785 1.5335242 0.18944378 1.1449876 -0.77727103 0.09975613 0.5601336 0.78030413 0.93284565 -0.2548293 0.50802195 0.77967024 -0.48375592 -0.77773356 0.7451944 0.075074114 0.10572526 -0.38891986 -0.75009924 1.6757811 -0.8246363 0.27669352 -0.23984425 -0.10244925 0.5893065 0.030960133 -0.14015855 -0.22902615 -0.3656148 0.4113956 -0.42562398 -0.90955216 0.65566146 0.32681248 -1.1883954 -0.54216385 -0.39589128 -0.5527807 -0.12217595 -0.50625527 1.5448481 1.0235099 -0.41086754 0.9382796 0.88344765 0.22347116
产 -1.4525509 -1.197688 0.024110299 0.4710916 -0.4592256 -1.0641454 -0.02334829 0.33250654 0.03646612 -0.82857925 -0.62591636 -0.27710462 -0.42554402 0.022454757 0.11262193 0.6200541 0.20057957 -0.7527188 1.0679845 0.4672013 -0.46337858 -0.26053262 0.8658291 0.80569124 -1.0248619 0.4167211 1.5028737 -0.15652557 -0.1554895 0.71996087 1.0305032 -0.40393722 0.93434745 0.42854863 0.7065262 -0.04010275 0.49040002 -0.6164403 0.24454041 0.6914269 -0.14963849 -0.2845762 0.318086 0.91759336 0.8261197 -1.1195955 -1.2148331 -1.3371781 0.79276747 1.1718696 0.864721 1.4815378 0.59824884 0.41399372 -0.35500216 -0.10518931 1.2012175 0.81286186 -1.9052973 0.5075276 -0.52043694 -0.31864882 0.082766384 -0.40616748 -0.044895135 -0.1301368 0.61487484 -0.1405198 -0.17535627 -0.0076541095 0.18391865 -1.0208294 -0.7279758 0.4553948 0.26438326 0.96780556 0.3433175 -0.16865723 0.6051683 -1.7861924 -0.09251915 -0.5241402 0.3642595 0.16081882 -0.73278975 -0.046053965 1.0176177 1.268901 -0.54250073 -0.26617968 0.087247044 -0.21264453 0.24422365 0.112015404 -0.5656221 -0.5322623 -0.4504562 -0.66123116 -0.28148025 0.39076865
后 -0.8419891 -0.17997599 0.565545 0.7159764 0.050722666 -0.31087357 1.5409974 0.4420437 0.51463693 -0.43444785 -0.1861914 0.45265028 0.30040658 -1.2613813 -1.2846241 0.21293202 -0.16651282 -0.7257682 -0.6754995 0.26570007 0.4057849 1.0063777 -0.9039872 1.1970972 0.020968836 -1.1933697 0.29929832 0.7397178 0.8291488 -0.5253163 -1.385736 -0.9361342 1.2871202 -0.2059659 0.18269084 -0.16937953 0.30976444 -0.007120314 0.03865413 0.04411255 0.33467475 -0.9441988 0.16655844 0.36302432 -1.0374731 0.037264634 -0.97519666 -1.6136721 -0.4300168 -0.9583445 1.9086802 1.0541921 -0.27423176 0.6146337 -0.16516712 0.71699387 0.17692581 0.32918835 -1.0784913 0.38385478 -0.09882723 -0.03509112 -0.3885424 -0.6949511 -0.047435444 -0.5971693 0.26691744 -0.163221 -0.63065 0.23235554 1.3876019 -0.7479914 -1.4418528 -0.06971795 0.023746261 -0.22706291 -1.4183143 -0.091877334 -0.75399566 -0.24053147 1.2081728 -0.9104373 -1.3795477 1.0740818 -0.755102 0.6412992 -0.87453103 0.7544382 1.296155 -0.16029626 0.32803103 1.0965911 0.56742924 -0.5965393 1.283271 1.1405866 0.33568174 0.2700733 -0.20148805 0.9885219
热 -0.87905306 -1.1047621 -0.50938976 -0.79565877 1.0678524 0.24656087 -0.6921048 -1.198893 0.6483286 1.2465518 0.6925073 0.4564581 -0.178321 -0.1264316 -0.51150817 1.9364133 0.34810212 -0.99507475 -0.21655421 0.98269427 -0.3378814 0.27199095 -0.10910918 0.467194 -1.1567142 -0.81181306 -0.5909883 -0.01189934 0.87446904 -0.2784742 0.2468788 -0.0041736136 -0.40358567 0.25971454 -0.9945319 0.6753405 -0.13660741 -0.8490369 0.81520396 0.3634844 -0.5921956 -0.8221822 0.5073251 0.39369938 -0.65602577 0.24766693 -1.292719 0.1319103 -0.51610863 -0.17274223 1.7199883 0.141376 0.97978085 -0.49222618 0.058289446 -0.4010145 -0.09754676 0.6430607 -0.0031544738 0.018321425 0.6048736 -0.944216 -0.23053677 -0.66899896 1.2898973 -0.29677263 0.7235077 -0.27263418 0.43255422 0.9512652 0.14782576 0.08356266 0.42406538 -0.9659511 -0.17125085 0.08998425 -0.007686569 -0.17084607 -0.9735127 1.1203727 -0.945789 -0.53371704 -0.16883795 -0.6082487 0.43027073 0.34673536 -0.26468873 -0.8856851 -0.0666796 -0.7731428 -0.5254474 0.26379126 -0.540953 -0.4072679 -0.15546884 -0.19296391 -1.0889051 -0.17374222 -0.77041084 -0.21436879
腹 0.033946246 -0.9183032 -0.19755848 0.672022 1.1594509 -0.65304804 0.33888018 -0.21450435 0.5591947 -1.1115696 -0.9855118 0.78956366 -1.2001798 -1.145849 -1.4131682 -1.5723565 0.0030018145 -0.7215311 -0.047620904 -0.28235015 -0.50430465 -0.5474179 -0.7980089 0.48501495 0.11433552 -0.8611327 0.9486732 -1.0687611 -0.8509497 -0.51991284 -0.16754109 -0.8407204 0.07242736 -0.01787912 -2.0650194 -0.5848247 0.8887277 1.0660751 -0.5658805 1.1151687 0.72519207 -1.367314 1.3390726 0.47126028 1.4262547 0.33466274 -1.3130422 -0.28409132 -0.056822103 1.4912056 0.846245 0.6109819 0.022341553 0.78488714 0.56406975 0.8194527 -0.57888794 1.6833761 -0.4545599 -0.86634266 -0.4239212 -0.27742854 0.8016817 -0.1412124 0.81302303 1.0779794 -0.25668117 -0.16824426 0.22487134 -0.37425917 0.18286186 0.47292134 -0.14463024 1.3524474 0.010539782 -0.6837017 0.17127943 -0.113263875 0.07711241 0.59312207 0.36777753 0.13137314 -0.6945932 -0.81834257 0.27005187 0.33442062 0.18016979 0.36547446 -0.28664425 1.1110753 -1.3587941 0.75650656 -0.6640497 0.40237558 0.5911855 0.45324492 -0.272333 -0.53183234 -0.7542465 -1.1597341
虚 0.060420208 -0.35938838 -0.28071102 -1.0456997 -0.37045535 -0.47574136 -0.45430934 -0.5118109 -0.22132394 0.9953644 0.052610807 1.4697309 -0.83562803 -0.47108608 0.004383016 0.9800787 0.9376386 -0.46578413 1.4967253 0.11436041 -0.5776748 0.13192451 1.1181405 0.6872924 -1.3981875 -1.4802783 -0.45405594 -0.47885683 0.71110845 0.8832446 -0.59006596 -0.68438673 0.0049866415 -0.49709108 0.79147667 0.23179725 0.7950895 -0.64789665 0.17044461 0.6315775 -0.3403281 -2.0134633 -0.36370146 0.17191862 -0.44535092 -0.82621545 -0.45183367 0.28215113 0.029304732 -0.062741816 0.78735965 0.062644675 -0.30310744 0.99810815 -0.78364235 0.7580803 0.5292765 0.6537804 -1.2970995 0.9704001 -1.3465124 -0.6218053 -1.5252243 0.5020686 -0.34768704 1.2409443 -0.5943667 0.7439364 0.061853286 0.38941458 -0.31713614 -1.0688809 -0.70640457 0.5066676 -0.53125846 -0.6742904 -0.46628127 -0.060404412 0.29263878 0.6753666 -0.29149815 0.39023414 -0.22012986 -0.15447703 1.7383908 0.6032788 -0.3491796 1.309055 0.89087623 -0.3716394 -0.1206247 -0.23166625 -0.012624343 -0.12893163 0.29054365 1.0769717 0.5030752 -0.91483986 1.107575 0.40117145
或 -0.528989 -0.921671 0.053797975 0.46739894 -0.060912084 0.49650338 0.7361878 -0.053456005 0.47073668 0.089883134 0.15719718 0.2251391 -0.5900402 0.0657595 -0.6104155 -0.4012656 0.28181088 -0.63500684 -0.1115176 -0.5359239 -0.758694 -0.36605462 -0.23649298 0.28196406 -0.23868474 0.34781766 0.8472065 0.39980757 -0.16371411 -0.25519767 0.44631824 0.3079126 0.4303574 0.64160883 -0.94221514 0.56779605 0.17288086 0.28178224 0.12756525 -0.20085075 -0.038232017 0.36426565 0.14249548 0.65621287 -0.38061935 -0.6629441 -0.09381327 0.40114847 0.21096237 0.6952828 0.17786212 0.77666765 0.5142376 -0.051191952 -0.122731045 0.15010054 -0.39027798 -0.35314637 -0.22864926 -0.22062026 -0.2401973 0.82372236 -0.33871603 0.9094637 0.18224603 0.24991971 0.4426201 -0.34766948 -0.21990503 0.41924986 -0.57589316 -0.09640665 -0.5256748 0.400751 -0.18471588 0.7783892 0.14736667 0.12407345 -0.08992065 0.18439932 -0.101694904 -0.32491857 -0.18310553 -0.56562513 -0.37033445 0.42854443 -0.057651963 0.45411456 0.42041886 0.2479841 0.42372024 0.68500805 -0.18995503 -0.13408287 0.12969153 0.1155431 0.19759136 -0.14211857 -0.5505075 -0.6985008
下 0.26433003 -1.0758376 0.7531606 -0.21663135 0.0018421846 -0.292906 0.0074145487 0.3044053 -0.32010704 -0.24544382 -1.1669112 0.20693566 -0.82865626 -1.2265167 -0.7112939 -0.3390524 0.59989077 -0.6630199 0.3912047 -0.23513258 -0.29559496 -0.3924983 -0.95572084 -0.6170082 0.2758011 -0.43923187 0.48512405 0.19740595 0.018123345 0.60046226 0.49991405 0.10102906 -0.04715181 -0.3203767 -1.2186234 0.60881454 -0.5269407 0.85668176 -0.22594602 0.25997654 -0.07294529 -0.33715302 -0.2206477 0.43256158 1.4898411 0.0219217 -0.5652949 -0.7938035 -0.67552215 -0.08411698 0.21968186 0.5301821 -0.22734116 0.50030845 -0.82667565 -0.88900733 -0.6542528 0.05656814 -0.47978246 -0.8393712 -0.13884276 -0.35593235 1.9923383 -1.2879591 0.8462071 -0.015157684 -0.24306875 -0.6865872 1.4707431 0.10991649 0.2229795 0.57413596 -0.8549668 1.0537615 0.12372335 0.7654371 -0.45988193 0.28091356 -0.14107251 -0.20860201 0.69701254 -0.17131212 0.26020005 0.10500292 0.7256282 0.8722142 0.65864116 0.15203664 0.9791646 0.02335735 -1.0953927 -0.26594552 0.04500404 -0.51174706 0.73446155 1.3408463 -0.046219602 0.31368098 -1.2954481 -0.3895357
风 -0.91693246 -0.9655467 0.86517394 -0.28537259 0.5613963 -0.56289625 0.3376996 0.023576785 0.5016071 -0.716875 -0.2719806 -0.38338733 -0.23389061 0.05162478 0.08755684 1.9123067 0.5113424 -0.84281564 -0.093795285 1.0028198 0.19905388 0.058953807 -0.09106249 0.10080878 -0.044344854 -1.0076277 0.42552447 -0.843639 -0.010441807 -1.2391256 -0.23209819 -0.1125286 0.08208005 -0.49541232 0.018548723 0.4399298 -0.65113086 -1.3571533 -0.43783903 1.0661145 0.36105826 -1.3446195 -0.5178977 0.6134784 0.23180178 -0.6978134 0.11932107 0.69002295 -0.35670933 -0.65464383 -0.096071035 -0.884418 0.095294505 0.54852 -0.38464376 -0.94069475 0.004139322 1.1748234 0.7088948 1.4769855 0.3656753 -1.142644 -0.16312556 -0.24046814 0.29756582 -0.9051923 0.9913576 0.19806717 -0.72020006 0.2505115 -0.982319 1.311882 0.55842215 0.8133236 0.3621727 -0.28281495 -0.7547667 0.7844856 -0.6661781 0.30656248 -0.8004318 0.010489827 -0.03210656 0.55130285 0.14500539 -0.78770524 -0.01209242 1.2080547 -0.60327226 -0.25393942 -1.0828816 -0.8837893 -0.035102643 -0.71071196 0.28044984 -0.57728356 -0.5504866 0.13082106 1.0350437 0.2456709
心 0.5258462 -1.1197329 0.6699515 -0.931989 0.90608865 -2.1377232 0.62647957 -0.35348213 0.42398012 0.74617255 0.9984295 0.4660574 -0.34508497 -0.114468314 0.36766738 -0.30453262 0.32271254 0.00058506033 -1.2093713 -0.44444615 0.104828 0.084444694 0.70018023 -0.15488572 0.49703407 0.028293902 0.36711615 -1.1535512 -0.22242275 -0.612282 0.20191692 -0.9310866 0.7548212 0.004017063 -0.27369758 -1.8483278 -0.63062376 -0.38975075 -0.39311302 0.3427275 0.12678416 -1.1390332 0.8231715 -0.10786469 -0.21474573 -0.8980855 -0.27653304 -0.112611935 0.7940684 0.6522048 -0.26852375 0.51845825 -0.40139788 0.40090206 -1.1713749 -0.72248405 -0.34509152 -0.42503056 -1.2552731 -0.6571551 -0.035610978 -0.08971528 -0.4246007 0.20420471 0.5037381 0.0030209061 0.7917479 -0.40320012 0.17101511 -1.2369394 0.6533682 -0.4013683 -0.2964424 -0.1438698 0.5240863 -0.460352 -0.46410903 -0.089124024 -1.1662136 1.0650717 -0.7135796 0.5285895 -0.2922495 -0.10045261 0.623325 -0.49865508 0.96479154 -0.101702265 -0.5239836 0.14874464 0.02771034 0.9531288 0.3205992 -0.37713936 -0.29714373 0.3799556 -0.4911775 1.4168758 0.20949334 0.4267982
； -0.9979336 -0.03900683 0.057462096 -0.24977194 1.3503833 -0.9766728 0.49203855 0.3212603 0.3029259 0.32916138 -0.96322656 -0.61579823 0.46953467 0.6827115 -0.9404876 -0.30846617 0.058552112 -0.013490279 0.06518353 0.74431366 -0.53631896 -1.256362 0.18901445 0.23594429 0.46602404 -0.7564081 0.8064579 -0.07709766 -0.75538623 -0.34935573 -0.72239363 1.1488638 -0.4218616 -0.14651096 0.20782083 0.20720172 -0.093728095 0.45474035 0.51606274 -0.5643063 -0.4453388 0.00078009494 -1.1367283 -0.09839723 0.14472252 -0.40302175 -0.37600803 -0.64197624 0.6008128 -0.5347122 0.33353105 0.32391387 -0.30845627 0.7496537 -0.5555545 -0.77392125 0.6725117 0.37698448 -0.97440726 0.5744295 -0.42923865 0.2923607 0.37076268 0.1088412 0.21741492 0.056381844 -0.7689938 -0.657992 -1.0846041 -0.39419398 -0.68290466 -0.40598843 -0.0073284353 0.7731202 -0.2387544 0.25300622 -0.1681352 0.29210111 -0.6524634 0.6035739 -0.67685884 -0.1943129 -0.6041781 -0.2895766 -0.083411954 -0.20705833 0.79706913 0.026625795 -0.13868603 -0.19142464 -0.07184997 -0.36130473 -0.19404924 -0.046074864 1.0774871 0.4773614 -0.21454713 -0.36565292 0.8559447 0.7897631
经 0.15350398 -1.5679821 -0.9485255 0.7062409 0.27522534 0.580535 0.958317 -0.63582593 -1.7362629 0.8857041 0.8098348 0.7617097 -0.053037245 -1.1148622 -1.1466012 0.7200372 0.035824254 -0.8823647 0.3528108 0.26605254 0.053608198 0.54971975 0.6457996 0.5755533 1.1761153 0.00665362 1.2761686 0.45839474 -0.6602802 1.0575194 1.1908859 -0.9579378 0.017627833 0.89676094 -0.6603488 0.4117364 -0.2783108 0.7352859 0.5793679 -0.3012017 0.4093618 -1.6402912 -0.40548256 0.2893107 0.09728846 -0.58214927 0.041435406 0.38871208 0.2491787 0.18028615 -1.4533694 0.9054669 0.70080864 0.7468218 -1.3723773 1.1592164 1.1400536 0.8415394 -0.8291478 0.089383684 0.60595024 1.1962824 0.24903749 -1.2035428 -0.64553756 -1.3086654 0.26364893 -1.009858 0.4222641 0.7352811 0.42475575 0.97397715 0.18156013 0.19318984 -2.3698704 0.056260124 0.934941 0.4149424 0.47892576 -0.5742142 -0.9318549 -0.5107161 -0.9861647 -0.687268 -0.737497 -0.46140677 -0.112036094 -0.11913763 0.009574602 0.72736824 0.48132387 0.19127974 -1.4128226 -0.13889907 -0.50146216 0.84935707 -0.11714309 0.10783071 0.0076084817 -0.9763711
胎 -0.87915224 -0.879146 1.3257687 0.10421449 -0.8701925 -0.53412706 1.9529369 0.711606 -0.6527946 -0.6089358 1.135611 0.9615343 -0.26173756 -0.0031484077 0.256692 -0.06294696 2.0754335 -0.6696097 1.4059646 0.21630453 -0.04621921 0.7802769 -0.13557981 -0.45726445 -0.5805249 -0.2539336 1.8616041 -0.45568842 0.6997998 -0.88172746 -0.42692897 0.34647137 0.22289793 0.45844045 -0.43208545 -0.65079784 -0.7044004 -0.15051824 0.24364164 -0.8015159 1.163257 0.29891637 0.5108502 0.0747088 2.048802 -0.43569884 -0.7164039 -0.25307965 1.2141805 -0.5669065 -0.15214513 0.7650555 -2.286105 -0.78663576 -0.14107676 -0.82750016 0.14189124 -0.052183382 -0.64064205 0.033995558 -0.7252747 -0.74104655 0.3055719 0.055909827 0.5254489 0.27777565 0.30645788 -0.7167476 0.49463567 0.8135777 0.48903248 -0.32957324 -1.5840119 0.42467567 -0.44247997 -0.09520741 0.9564386 0.099028826 -1.0850153 -0.5489435 -0.49433467 0.7653717 1.2889118 0.78851676 -2.045582 0.07641311 0.6749779 -0.13447692 0.97037154 0.56984544 0.049371507 0.7754419 -0.48934084 -1.4777781 -1.4463935 0.3630949 0.7391124 1.0360374 -0.2307145 -0.70524037
寒 -0.7932482 -1.0490711 0.29842553 -0.90923834 0.59710103 0.11661471 0.38295767 0.66893613 -0.06413465 0.2377246 -0.16640307 -0.13610594 -0.37520835 0.42141086 -0.91483235 0.95905566 0.08684711 -1.7313167 -2.2055967 -0.06344816 0.4774843 -0.010110198 0.0006358948 -1.2217163 -0.6276469 -1.4909291 -0.7977026 -0.45376536 -0.30239332 0.9078184 0.48592547 -0.39356822 -0.3935572 0.44476366 -0.4037815 -0.17856583 -0.5904038 -0.95216835 0.29194498 1.414256 0.58768046 -0.29232 0.6560085 0.2100693 0.03226371 -0.89558095 0.09599536 -0.22504623 0.28424397 -0.020729972 0.32616317 1.0653613 -0.45732912 -0.5767281 1.6464128 -0.92103976 0.19250059 1.4037076 -0.29469892 0.572243 -0.8118797 0.0152383065 -0.6605388 0.40731716 0.20944999 -1.3059763 0.53372383 0.31126845 -0.57772636 -0.6798792 -0.1412188 0.0750266 0.7061832 -0.11165877 -0.63399965 1.0595759 -0.079495125 -0.75530016 -0.0904639 1.4263072 -0.68668956 0.034793455 -0.4708674 -0.74724525 -0.57380056 0.38945603 -0.22175594 0.3443908 -0.062607214 -0.81442934 -0.35276252 0.41202268 0.18171158 -1.1402606 0.21245998 0.72305727 0.37167665 -0.9673359 -0.3824042 -0.036839217
食 -1.5502813 1.1192778 0.066885486 -0.36344364 -1.7166566 0.3080515 0.4739397 1.1161214 -0.10915935 -0.49874726 -0.20897487 0.16918395 -1.7087024 -1.7723874 -0.41124806 -0.23967583 -0.00664417 -0.15172477 -1.6161119 -0.015085683 1.0591812 -1.5653414 -0.07151901 -1.2598834 0.20384805 -0.4061828 -0.670338 -1.5101037 -0.38174093 0.17536314 0.9126136 -1.0761092 -0.025596414 0.90571445 0.5287382 -1.3237115 -0.6163864 -0.02154793 0.40857074 0.07807494 -1.3592827 0.8658938 1.5674748 0.52631336 1.6025529 -0.17718834 -1.0058112 0.59991515 0.457012 0.22972104 1.2136484 0.5180833 -0.3125608 0.37747926 -0.9595035 -0.1526311 0.26412487 0.33860585 0.24407703 -1.3974113 1.7397976 -0.7693196 -0.37933096 0.58979684 -0.2968253 0.66995794 -0.20852147 -0.12231794 -1.0122871 0.7182838 -1.6866072 -1.5655415 -0.37348524 0.08953895 -0.9931972 0.5832553 0.87214005 -0.05511915 -0.91050875 1.5544455 -1.1005653 0.41632423 -0.11474244 0.7628693 0.077744104 0.54775447 -1.5624807 0.7920735 -0.1383394 -0.45725036 -1.7808452 -0.8972385 1.9166863 -0.8484469 0.2241138 0.60684055 -1.4927973 -0.19450518 -1.1503947 0.21748692
疼 -0.008936664 -1.783071 0.46066839 0.22931994 0.5730355 -0.7304786 0.031038687 -0.40050274 -0.29858282 -0.29999048 0.4361672 -0.43196625 -0.7493652 -1.0308173 -0.12862262 0.20817651 -1.4593118 -0.8957914 -0.7881301 -0.9246788 -0.40134555 -0.9839411 0.2730806 -0.10009511 -0.082766086 -0.60690904 0.28909245 -0.62659717 0.014048809 -0.19846494 0.27743384 -1.1794895 -1.0635662 -0.99222034 -0.7331771 0.184062 -0.7758678 -0.037853096 -0.06678797 0.35985175 -0.717183 -1.004105 1.0436506 -0.5221548 -0.6038514 -0.14429432 -0.1259655 -0.9067548 0.30005842 1.127178 0.1116022 0.22145995 -0.2966095 0.1965524 -0.19214153 0.29844195 -0.5586264 1.1859337 -0.028302353 -0.025663493 -0.47799766 -0.9591778 -0.05562228 -0.21989141 0.20387946 0.46265385 -0.44389278 0.15584008 0.032326013 0.2520458 -0.4891697 -0.34527493 0.12549163 1.1675982 0.3724647 -0.16773452 -0.57042634 -0.27608308 -0.14215285 0.70157236 -0.047078237 -0.83149254 -0.4242889 -0.29215237 -0.80780137 -0.31075397 0.5392443 0.51614875 0.15943265 -0.3395459 0.063592985 -0.076302275 -0.6251906 0.6540099 0.86411047 0.15945113 -0.8389132 -0.37704447 -0.048495542 -0.0764628
中 0.34819886 -0.6295787 0.37493303 -0.5243858 -0.23137389 -0.041642345 -0.28030673 0.26921892 -0.13310802 0.28536206 -0.962067 -0.45162213 0.23840785 -0.14477517 -0.7451825 0.32066798 -0.5674225 -0.42645422 0.14975059 0.004039609 1.0439813 0.12917784 0.0648153 -0.30539346 -0.34829295 1.2188601 -0.49005064 0.66783583 0.2991458 -0.15870595 0.44537273 0.9455186 0.33954877 0.7884291 -0.88545936 0.4196296 -1.2043035 -1.6107266 -0.08814303 0.24757656 0.09509682 -0.489903 0.6004756 0.061049625 -0.115070924 -1.4074017 -0.0795773 -0.9875831 1.4545226 0.16962685 0.32773152 0.79999816 -0.85494035 0.1729563 -0.544219 -0.6091077 0.5682495 0.1806798 -0.112376936 0.6752918 0.039502893 -0.00038099193 0.70293933 -0.05884731 0.38285175 1.0846943 0.20610288 -0.58977544 -0.27476555 0.0855624 0.6887159 -0.5647729 -0.11325411 0.482327 -0.4836851 0.47138014 -0.66287595 0.55392903 -0.20353217 0.21286087 0.004980058 -0.8966985 -0.9239343 -0.16090211 0.2155389 -0.7278241 0.9209367 -0.21118589 0.52290124 0.25261205 -0.30521983 0.2714614 1.0425152 0.1541849 -0.009721159 1.6943128 0.42068177 0.29234186 -1.2915566 0.8180646
者 -0.5194359 -0.4501622 0.31487352 -0.18706737 -0.81347704 -0.24159068 -0.5089454 0.6207111 -0.37524912 -0.29448453 0.3792733 0.13079219 0.4917189 -0.23536557 0.091119185 0.6867783 0.8894835 -0.8376029 0.59997183 0.3633818 0.5254687 -0.051188685 0.039257057 0.11151743 -0.41993317 -0.32083526 0.4117683 0.4307455 -0.09761564 -0.487154 -0.5192371 -0.23220147 -0.55227125 1.2081372 0.14647867 -0.48521048 -0.22118281 -0.1607111 0.4040655 0.6138579 -0.6262666 0.04223093 -0.07669682 0.04510352 0.1419812 -0.10870035 -0.6106676 -0.4748811 0.25503314 -0.27704751 0.9084912 0.105459414 0.51616484 0.5398595 0.1297524 0.018422833 1.267157 0.6755022 -1.0745081 0.30057094 0.7957991 0.2910453 0.11757317 -0.43597347 -0.7246618 -0.39239034 0.4360003 0.057654064 0.09549074 -0.023878887 0.60337573 -0.16022502 -1.0059978 0.03962851 -0.3164328 -0.21991749 -0.021973588 -0.35702842 0.7191011 -0.24049519 0.50073224 0.35154057 0.0060347733 0.21963347 -0.6570623 0.20888339 0.31146747 0.7183034 0.23960328 0.17737833 0.032404307 -0.1583513 -0.037346084 -0.96959525 -0.28591117 -0.06668628 -0.4406539 0.09396577 -0.8343145 -0.27463138
小 -0.18607557 -0.35073894 0.2706106 1.7269447 -0.75314903 -1.3221601 1.4512479 0.2835614 0.86494845 0.5130184 1.2027714 -0.45353937 0.67271745 -0.32483783 0.34901008 0.64458984 1.8742051 -0.13088556 -1.2291843 -0.50558984 -0.19244012 -0.2966466 1.1729097 1.5140939 -0.019511454 0.76541626 0.639688 -0.082624234 -0.45610926 -1.1641834 0.22362459 1.4153222 -0.21213387 0.52635527 -0.28551206 -1.1756514 1.4309316 -0.09983467 0.20524414 -0.0718634 -1.90453 0.24869366 0.6503882 -0.7327255 1.0757693 0.14724885 -0.4866312 -0.22683775 1.6538833 -1.290509 0.8599856 -0.03771069 -1.3244392 -0.24063718 -0.227579 -1.4106468 0.37856084 0.09676525 0.7338306 -0.09726755 0.2530631 -1.2787131 0.6771967 -0.5237835 1.112395 -0.35868004 0.6711419 0.80396396 -0.6641076 -0.16385484 0.4071011 0.19774374 0.9455357 0.09884366 1.0743351 -0.4631164 1.0895178 -1.2743038 -0.03163275 -0.39732662 1.3365012 -0.28462207 -0.41666713 -0.36386916 -0.006939325 0.16203943 -0.19306746 1.6081104 0.6016693 -1.2206948 -0.68665725 -0.10410056 -0.20585895 -0.5297078 -0.08359581 2.0323918 0.034788266 0.97670007 0.3565768 -0.37278894
妊 -2.1071365 -0.708926 -0.45389917 0.5061313 0.39382836 -1.6951041 0.4412434 -0.4473508 0.5658058 -1.2345454 1.9444119 1.5966678 -0.91410536 0.16802844 -0.14663687 0.4720584 1.7765267 -0.8320445 -0.6339575 1.9488904 1.2995417 1.1741964 0.35706812 -1.6515442 -0.50544953 0.048069578 -0.8710804 -0.74277323 0.64536077 0.13791446 -0.96260124 0.029837484 -1.0043616 0.22739469 -0.37082413 -0.43239278 0.28775677 -0.46310925 -0.30216503 -0.73808193 -0.057146747 0.6442905 0.62106633 0.23648131 0.15954833 -0.27356422 0.3879185 -2.1101832 1.2208607 -0.029987853 0.83603704 -0.22724119 0.975024 0.7388392 -0.15977164 -1.7799226 -0.8350105 0.44340268 -0.7009945 -0.7156702 0.08227741 -0.77815026 -0.482632 -0.53370005 -0.4126588 0.031890456 -0.49749652 -1.6538936 1.0389581 0.40157083 1.3242341 -0.72544193 -1.0543116 0.6602631 -1.8621993 -0.56051356 0.80080324 -0.46282303 -1.4200327 0.72239596 1.5520451 -0.15511316 0.08887234 0.675645 -0.98728114 0.21335511 1.2060802 0.6693554 -1.5073758 0.93267304 -1.7693167 -0.8450176 -0.14600007 0.23634912 -1.3294733 1.5133626 -0.1350159 -0.19103459 -0.08303967 -0.39739397
娠 0.40623763 -0.70698124 1.865288 -0.12677813 -1.2181654 -0.26840588 -0.07785435 -0.15291141 -1.8093741 -0.022005955 -1.3933184 -0.04195215 -0.59478396 -0.702076 -0.33459267 1.109729 0.9699478 -0.40868643 0.5301354 -0.6973395 -0.6610941 -0.309007 0.7517339 1.1371253 -0.7793461 -1.3049423 0.94934994 0.2601564 0.67117715 1.1878219 -0.13262512 -1.2814654 0.62573856 0.55547273 1.0708953 -0.7965357 0.18791199 -0.5110055 -1.1619973 1.5778114 0.4196761 0.19434984 -0.26115173 0.8219619 2.0841472 0.24035789 0.45756045 -0.9286654 0.71925014 0.7142575 1.6221586 0.38600275 -1.6633815 -0.64223355 1.541367 -0.2819388 0.3927799 1.462473 0.97024995 -1.497989 -0.09341213 -1.3784208 -0.7591266 -0.7105433 -0.2918262 1.8886774 -1.1138266 -1.1835692 -0.51728195 0.1368903 0.5100324 -1.0061971 -1.3780321 0.27693003 0.63770705 1.0334308 0.00815313 0.23353286 -0.12472654 0.38142487 1.0655975 -0.15173668 -1.2811323 -0.61386466 -1.0345454 -0.5220429 0.3695315 -1.0602089 1.9717194 -0.73877 0.55048764 0.32154918 -2.1271083 -1.7510706 -0.10579229 -0.5977376 0.70203125 0.31425858 -1.5487163 -1.1840389
伤 -0.45043585 -1.1247121 0.9162493 0.08288831 -0.5688097 0.31623718 0.4034007 -0.9915222 0.21898778 0.8211568 0.47497156 0.4104507 -0.8931063 -0.8986494 0.047895998 0.03997928 0.22320744 -0.039527293 0.8918991 1.6961114 0.04116106 -0.49551564 0.3117863 -0.1789949 -1.0165668 -1.1859185 0.09919421 -0.60901076 0.097525924 0.35786667 -1.6175351 0.023720562 -0.56428033 -0.52177244 0.2059964 -0.054426063 -0.17744948 -0.7794595 -0.46162876 0.46435744 -0.98733145 -1.0057616 -0.61846334 -0.07222226 -0.58440346 -1.5512671 1.1806817 0.75866663 -0.056727357 -0.024391284 1.2745391 -1.0265481 0.5720782 -0.8497136 0.71629626 -0.11898175 0.68807256 -0.6512699 0.6275024 -0.33796138 -0.2480278 -0.97476214 -1.3576807 -0.16697778 -0.404902 1.0694698 -0.25142393 -0.6035943 -0.15677392 1.0810103 -1.564541 0.015014688 0.08104745 -0.12845531 -0.35535645 0.12776677 -0.44279233 0.06992529 0.36199954 0.41614142 0.22174922 -1.54876 0.019631436 0.04747773 0.8397555 -0.78258103 -0.09440891 0.40718484 0.4767277 0.44659993 -0.031102138 0.6646867 0.3639821 0.14223419 -0.79772484 0.6772892 -0.7355323 -0.79227793 -0.79572904 -0.72673815
水 0.4018767 -0.48953345 -0.83496904 0.51807654 -0.29868847 1.3035628 -0.06474011 -0.44831482 -0.89608455 0.20860182 0.17185435 0.43759027 -0.21478905 -1.3140991 -1.2854843 0.036754206 0.6504248 -0.26686502 -0.8152782 -0.08769715 -0.57445645 0.14218347 0.10370785 0.6622699 -0.27747804 -0.7407753 -0.3021905 -0.1866035 0.09349336 1.0502076 0.0706087 0.4113185 -1.2351273 0.5724336 -0.86257064 0.9837511 -0.2528494 0.14593023 -0.4954894 -0.73928607 -0.6262318 -0.008880299 -0.67155176 1.6503172 0.5495235 -0.05306606 0.24767429 0.23429506 -0.2948238 0.34222 -0.8207573 0.73370636 0.09552252 0.75216633 -0.06158585 -0.93720937 -0.45675936 1.4011352 -0.8034246 -1.2853478 0.9015246 1.0231017 0.17502005 -0.29107863 0.13797568 -0.61618686 1.5096502 -0.05397945 0.09533609 -0.47684312 -0.15971246 -0.95617515 0.59769475 -0.18706912 -1.2645056 -0.101723276 0.9081859 0.0014291595 1.1816506 0.3215819 0.12571454 -0.17093599 -0.69183934 -0.285476 -0.29494056 0.13856944 -0.8110714 0.22507648 0.38666904 0.6051089 -0.0028114798 0.17618524 0.021534137 0.5363603 1.0713476 1.725425 0.21861564 0.19246998 0.13048545 -0.37564445
冷 -0.348325 -1.0340561 -0.0857669 -0.77712244 -0.2322109 -0.05649581 0.330526 0.649155 -0.54535496 0.82420456 -0.92020535 -0.6061867 -0.26458538 -0.08869414 -0.9673031 0.5278461 -0.48647392 -0.63953406 -0.6172634 0.04840827 0.26938358 -0.39159548 0.479809 -1.0789579 -0.6863365 -1.3631445 -1.0094435 -0.7953066 -0.62094486 0.54154944 0.9723862 -0.08442246 0.006002581 0.19652835 0.05880985 -0.36625478 0.42784846 -0.47151583 0.71714824 -0.10205087 0.28887627 -1.0261197 0.68652827 0.61571985 -0.44745085 -0.096946865 -0.02856548 -0.37759835 0.07438566 -0.33988976 0.46377316 -0.22086674 -0.67819077 0.10337336 0.4406935 0.3843372 0.7619966 0.2921407 -0.547224 0.14091566 -1.0057955 -0.13123605 -0.055489946 -0.49529663 1.1238497 0.12782934 -0.699165 0.4176905 0.7253693 0.8346923 -1.3829535 0.20738281 -0.5938155 1.1909875 -0.25895014 -0.02601152 -0.6101135 -0.22086227 -0.4961844 1.8254116 0.35966057 0.4674404 -0.4873115 -1.2048818 0.091790125 -0.028312184 0.7424369 0.01699132 0.4947813 0.90133244 -0.23369007 -1.1240846 0.8169619 -0.14192027 0.53572375 1.2675552 0.34945613 -0.5083799 -0.3979065 0.34777752
月 -0.21356015 -1.7001538 -0.32061136 0.48525727 0.4692984 1.6098015 -0.066506505 -1.528573 0.7629112 0.18914287 1.958931 1.4597615 0.18850207 -0.87887037 -0.6336618 -0.34483436 2.0621996 -0.71698856 0.4134981 0.5407603 0.41521794 -1.1019677 0.15246393 0.10451953 -0.2232811 0.2545489 0.51254684 1.0961778 -1.7141298 -0.19008581 -0.108949095 -1.0459304 -0.2661845 1.2007638 -0.09011448 -0.50834656 -0.35568613 1.1343658 0.26741534 0.3384601 -0.5709284 -0.5800764 0.47525206 1.0180008 1.0225104 -1.9887382 1.2011641 -1.0543067 -0.6189476 0.29743335 -0.93251723 0.6436147 1.0841104 -0.035112914 -0.07565034 -0.105342515 0.46640185 0.5611961 0.36858934 -0.041015718 -0.074893616 1.4021931 1.0148908 0.033518948 -0.67375755 -0.9056195 0.5584361 -0.48995626 0.63200825 0.40580174 0.23601604 -0.3474544 -0.19847369 1.5902656 -1.9807941 -0.6905656 2.1472044 1.3438934 0.072834745 -0.36928928 0.24521749 0.78936195 -0.92352307 -0.44182146 -0.66927373 1.1726915 -0.3195545 -1.2504709 0.14150721 0.2745151 -0.35533497 -0.9027543 -1.6886053 0.45802265 -0.89531 0.9944405 -1.0298935 -0.18402126 -0.4573301 -0.47290546
、 -0.7813526 0.45183465 -0.17141332 -0.06443832 0.7608842 -1.6588082 -0.30643234 -0.4502922 -0.080855265 0.6651333 -1.3798158 -0.26268983 0.5646397 -0.036292538 -0.050604783 0.33290544 0.4163807 0.72763073 -0.54978305 0.29924434 0.29294825 -0.08613721 -0.47283027 0.07450174 0.15659714 -1.6514392 0.27930358 -1.3173895 -0.9344957 -0.42665353 0.47735703 0.7019279 0.058507908 0.03446377 0.9067776 0.543435 -0.12507635 -0.77673316 -0.38300216 -0.42746902 -1.0131612 0.07525006 -1.5538224 0.20488898 0.22870184 0.17418899 0.17091052 -0.2075355 -0.36425474 -0.81037736 -0.27006033 -0.4752926 -0.24529916 0.38124266 0.25606072 0.7274058 -0.41674975 -0.21407214 0.21469247 0.025985608 0.88512105 -0.99451417 0.26073352 -0.12631658 0.20630567 0.3909952 -0.2901549 -0.37972257 -1.4362669 -0.13440377 -0.9587443 0.16643803 -0.47325292 0.55587065 0.30485567 0.9454439 0.27075636 1.1481813 0.4163495 0.3806221 -0.13785337 -1.1489185 -1.0617253 -0.14716554 0.060121715 -0.48875457 0.6820765 0.33986518 -0.07707332 -1.0695821 0.22191046 0.18836325 -0.27469623 0.13671464 0.8567065 0.2561735 0.0050415737 0.27002445 1.1018525 0.99436295
子 1.0486556 -1.2076352 -0.014267583 -0.9105368 -0.16730668 -1.0272471 -0.62862897 0.20446579 -3.4232638 0.018939162 -0.19099954 0.7849425 -0.06032524 1.6585034 -0.43934873 0.07119435 2.0010374 0.12321241 0.95134073 0.609983 1.032034 0.75280076 -0.636165 -0.16559365 -0.69523156 -0.63416386 -1.3040786 0.48571983 -0.474791 -1.3994862 -0.39221966 1.1174349 -0.067449756 1.0532109 1.3033319 -0.13326068 -0.49700397 -1.2173694 -0.87900484 -0.9372966 -0.77735204 -1.7496378 0.56135184 0.3683121 -0.7930981 1.3506802 0.76846063 -2.0320792 1.3198051 0.7511633 -0.75170624 -0.7970587 -0.364383 0.62033695 0.21088225 1.1861792 0.87727773 0.63218933 -1.1711332 0.5895447 0.6083777 -0.1488939 0.7680619 -0.10172792 1.2983092 -0.4544677 -0.6548894 0.34018812 -0.45739433 -0.4111629 -1.4155885 0.85742867 -1.2538615 0.3003234 -0.0851085 -1.5018378 0.36081457 0.5561105 -1.2466184 -0.3846146 -1.6970842 -0.035719376 -0.7077092 -0.9178835 0.3001931 0.45765287 -0.4095566 1.3572434 0.6775705 0.739737 0.6129631 -1.0880399 -0.54610896 -0.7377121 -0.23813303 1.4866132 -0.6424966 0.09593199 0.80487585 1.4311008
及 -0.8130195 -0.52917194 0.8749448 0.23687734 0.005231406 -0.011234207 -0.060742702 0.0069774473 0.24309658 -0.14604151 -0.26678693 0.124773 -0.20107915 -0.17940079 -0.38111448 -0.2111923 0.81405497 -0.025695536 0.29278395 0.15327916 0.7109667 -0.1881259 0.15011352 0.39766815 0.40530184 -0.6725723 0.19178477 0.012571822 -0.5023758 -1.0093178 0.14423202 0.5369225 0.77201754 0.17579107 -0.093627855 -0.2035925 -0.34826788 0.34606573 0.16425781 0.88625336 -0.71895635 -0.48029402 -0.7747549 0.008130199 0.3162722 -1.1590488 0.017254865 -0.19968358 -0.11431591 -0.02977112 0.2829806 0.3845393 -0.4771629 0.09262792 -0.14634216 0.23006983 -0.1980064 -0.510366 -0.030763624 -0.3014043 0.39849576 -0.26772776 -0.16304727 -0.115075834 0.3621322 0.588275 0.087522134 0.5815394 0.10038238 0.080259375 -1.088179 -0.00058366684 -0.23096772 1.0231917 -0.022021806 0.5845122 -0.11070906 -0.20764951 -0.23445377 0.5326894 0.6738205 -0.7281271 0.021437885 -0.39660552 0.07702207 -0.0058419965 0.48572168 0.14462218 -0.08285736 0.55093926 -0.07763304 0.00078931294 -0.576725 -0.5269051 0.45678535 0.41239515 0.14347656 -0.36410198 0.24486935 0.87132967
头 0.095040426 0.2194343 -0.41796526 -0.24546327 0.17866482 -0.6156794 -0.21417876 -0.30160016 0.1759625 0.028914388 1.2901211 -0.0761341 -0.8523071 1.8302045 -0.13032302 0.012280554 -1.1140846 0.894123 -1.7024897 0.7458611 0.7675275 -0.3771408 0.8223166 -0.063257605 -0.286164 -0.25101534 0.523328 -0.18441406 0.76809955 -0.7673089 -0.23282352 0.3760188 1.0135047 -1.0228337 0.15346926 -0.31649923 -0.3828944 -0.7614627 0.50161624 1.2150854 0.7663351 -1.2161725 1.0703104 0.40783525 -0.86218613 -1.7907592 -0.009355688 -0.8696269 -0.40627718 1.5452782 0.44815135 1.0693405 -0.3088783 1.0765873 0.949052 0.3835935 -0.6919539 1.6852254 0.21388984 -0.6360432 0.584246 -0.1538933 0.0282611 0.1377124 0.20521472 -0.8218425 -0.5459455 -0.6509497 -1.3130866 0.5511091 0.27829608 0.82891273 -0.16547278 -0.32883424 -0.42568 -0.031514015 -0.7326953 0.63903135 -1.0529062 0.22371313 -0.07164684 -1.4890468 -0.7466005 0.18178478 -0.39709982 1.065753 1.5202488 0.47870475 -0.22833042 -0.3250289 0.079583 -0.09990032 0.15022077 -1.5746244 0.06151041 -1.0474533 -0.7019474 0.07591203 -1.2690765 -0.34067148
饮 -1.131308 0.5938423 0.4256475 -1.0601466 0.76197195 0.31036285 1.943567 -1.2195253 0.20580882 0.35249802 0.41198656 0.6167804 -0.7765984 -1.34936 -0.05493399 0.8147674 0.8126001 0.6087981 0.3176221 0.3594478 0.616277 -0.17169702 -0.30594492 0.109103404 0.53812796 -0.29830712 -0.33803442 0.48067 0.3403758 1.2056463 1.4437968 -1.502717 -1.6390172 0.49062076 0.584118 -1.8309784 0.8912066 1.0759597 0.5695564 -0.26223567 -1.6680405 -0.20740004 1.6661339 0.4477746 1.1565062 -1.4006542 -1.0158392 -1.0822635 0.37701124 0.7683945 -0.49261636 1.5569957 -0.5671669 0.22581299 -1.1358058 0.11609129 0.5967478 -0.2095108 1.1252948 -0.62184525 1.7661748 -0.47550103 -0.9733776 1.0262905 -0.6053494 0.9636971 -1.1248676 -1.3534714 -0.56575984 0.6667967 -1.2029389 0.102970265 0.3181139 0.39424208 0.40935618 -0.77676964 -0.57431906 -0.16234416 -1.2470402 -0.643416 0.6453997 0.29833198 -1.1574664 -1.146525 -1.8241684 0.29700026 -0.6350814 -1.6089791 0.6291616 0.9571051 -1.9293617 -0.8785751 1.8065009 0.36536628 0.12182004 -1.1641858 -0.44811833 -0.5057363 -1.2300003 -0.7256043
带 -0.2546206 -2.7002132 0.56538373 1.0590602 -1.2025374 -0.028787892 0.844758 0.81555235 -0.6864027 1.472334 0.27680588 0.23443933 0.90712917 0.14689091 0.9857336 1.0863824 0.07435219 0.020793542 0.8719363 0.17330208 -0.44865477 0.81618094 -0.5705513 -0.20789538 0.92839336 0.7350452 0.43152356 -1.0707515 0.21827915 -0.07318169 0.32446888 -0.49684238 -0.69919354 -0.49831805 -0.18203317 0.75020355 0.9570237 -0.9594986 0.43098783 0.5606037 0.0067097177 -0.8542682 -0.9978291 1.3077841 0.78435993 0.29305297 0.020915583 -2.7991254 -1.341465 0.6874072 -1.8450731 0.98699266 0.0494643 0.45760673 0.32084206 -0.47474203 0.15356556 0.29163143 -0.5324401 0.5497673 0.3762341 0.40700224 0.15102383 -0.03530783 -0.343609 0.018620599 -1.1064528 -0.4029225 0.1779618 -0.06619224 0.53666806 0.7757101 0.13799742 0.210662 -0.8088601 -0.92902553 -1.1235753 0.3559624 0.56717557 1.246582 0.27139068 -0.34040183 -0.359275 -1.7121608 -0.45346922 0.99934727 -0.9998249 -0.117794335 1.6601713 -0.8254224 -0.9557279 -0.23807558 -0.5869968 -1.5502222 -0.089832224 0.6256682 -0.816241 0.59573513 1.073228 -0.5469334
白 0.9984064 -2.0753465 0.3753325 0.040757842 -0.086470276 0.41136727 -0.042088926 -0.4712346 -1.285413 1.4515529 -0.968102 -0.14812326 -1.0960234 0.55644256 0.9051659 0.13733445 -0.14028504 -0.0027916455 0.015737781 -0.4107685 1.2556531 0.037561502 -0.3965359 -0.67791206 -0.7840521 1.2271793 -0.8641508 0.20976272 2.1395097 -0.4802107 1.4917917 1.0833622 -0.17555377 -0.8054243 -1.7427672 0.37895113 0.77404684 1.354179 -0.2832025 0.32533956 -1.1999799 -0.5818377 -1.1914957 -0.7926144 1.0119096 -0.37875208 -0.22092521 -1.8978783 -1.6730273 -0.09499389 -1.4144725 1.5380336 0.98840356 -0.17269003 -0.7265582 -0.9774843 -0.16300988 -0.49561545 -1.3590688 -0.16715115 -0.38231552 0.23183249 0.8894193 -1.2719213 2.0246413 -1.0794398 -0.07652581 -0.13352223 0.6819434 1.5879124 -0.63865995 0.52633816 -0.6883657 1.3832912 -0.46862942 -0.16971278 -1.3932921 0.5978116 0.15805933 -0.20913176 1.6565322 -1.0690186 0.34067118 -1.0881264 -0.51641804 1.101908 -0.34594142 -0.02206947 1.2661309 -0.41707206 -0.7647066 -1.357646 -0.8339229 -1.6532747 0.48813713 1.2048315 0.7747962 0.5364397 0.76841825 0.113404125
止 -1.1521987 -0.6783571 0.36442956 -0.18614765 -0.14872476 -0.3081431 0.8212077 0.330559 -0.8618196 0.032370172 0.07317287 0.18522269 -0.83668053 -0.66790587 -0.34223044 0.091452494 0.27077866 -0.17629598 0.35898346 0.28895575 0.031198509 -0.028824048 -0.39639223 -0.05264211 -0.42950913 -0.086150385 -0.6090408 -0.24539055 -0.11538596 0.59809434 0.16947676 -0.28641936 -0.62293744 0.5819352 -0.050330207 -0.13050564 -0.26678368 0.66134554 0.694057 -0.091795035 -0.25582263 -0.29777578 -0.8672444 0.8866196 0.89041364 0.10365352 -0.41381103 -1.2662538 -1.4919977 -0.25990292 0.22378227 1.6493756 -0.76068026 1.2040713 -1.4840885 -0.5492239 -0.33695382 0.83107424 0.026200602 -0.25876924 -0.8508193 -0.35704854 1.1185521 -0.5184045 -0.07860385 -0.007624682 -0.5468303 -0.036011584 0.9503348 1.0361058 0.93248594 -0.27864194 -0.10088206 -0.16714938 -0.7758318 0.75406986 -0.40284196 -0.14313419 0.013291796 0.81481624 0.9023725 -0.33543384 -0.5022724 -0.60299575 -0.30772856 0.35666975 0.98699594 0.46093354 -0.2144106 0.2632884 -0.6813536 0.8488873 -0.2687047 -0.5823154 -0.87139434 1.2246431 -0.077303715 -0.25656375 -0.46340778 0.8906578
烦 0.7288092 -0.32250825 -0.53823566 -1.881957 1.1784401 -0.8698753 2.4088306 -0.17211792 1.5041841 -0.65358865 1.1999247 0.14143214 -0.79580384 -0.4140183 0.47751498 0.88568044 -0.12612535 -0.41655156 -0.36441427 0.98241997 0.164697 -0.7587064 0.74183 -0.65030617 -0.65964675 -0.67430127 1.0996084 -0.5558562 0.31421483 1.0425097 0.07352314 0.054481473 0.24514836 1.4747077 -1.1863407 -1.3752207 -0.726341 1.3938192 0.11142228 0.6622257 1.4086063 -0.36451662 0.7607407 2.0825193 -0.9852215 0.30821785 -0.1476595 -1.3717567 -0.11218939 0.91412675 0.59821045 0.677146 0.3905488 0.5220879 -1.016578 -0.9833512 2.1701157 0.5125691 1.5672172 -0.87343764 1.2031378 -0.4229484 -0.008045492 0.24387045 -1.1034079 0.9023248 -0.8018455 0.61495996 -1.0914297 -0.25277576 1.1865314 0.8528339 -0.72508216 0.39675176 0.27821496 0.80455166 0.018316155 -0.55987453 -0.947419 -0.22309534 -0.83700454 0.52708185 -2.217383 -0.68283755 0.29508305 -0.95716983 0.5218251 -0.73977005 -0.46696332 -0.73096 0.16786201 1.286728 0.3258598 -0.41142267 -1.2714096 1.1776389 -0.2781666 0.82906723 -1.0361825 -0.69055384
恶 -0.053345516 1.8509047 -0.011234453 0.20367442 -0.65018356 1.0284348 1.3233927 -0.26550812 1.2015983 -0.20266317 0.46997488 -0.28415373 -0.88802177 -0.966554 0.16582829 0.06652079 0.7936328 -0.908467 -0.09441381 -0.5918362 -0.4539042 -0.10370238 -1.0124596 0.32794973 -0.46315995 -0.12924181 -0.62796885 -0.110908076 1.0840478 1.1540304 -0.70952237 -0.5669308 0.5231502 0.9006205 0.07718978 0.9677782 0.8877606 -0.0054054623 0.7750727 2.2951517 -0.54449326 -0.45965588 0.38578457 -0.075360335 1.3371307 -1.4258128 -1.6767057 -0.70959604 -0.058928613 0.9895347 1.3671521 0.56872696 0.0026342757 1.4453889 -1.031022 -0.92376405 0.26575536 0.5138664 0.15329133 -0.36479065 0.8204334 -1.1170889 -0.82279 -1.590229 -0.07500018 0.9222341 -0.9063239 -0.1851229 -0.80236775 -0.4958637 -0.4747248 0.25209814 0.32432672 0.17346878 -0.20290726 0.043532513 -0.17629147 -0.5123426 -0.9125135 -1.3682495 0.011262062 -1.816354 -1.295985 0.53707427 -0.4796744 0.31735122 1.7794021 0.9459091 0.57778746 2.3167884 1.0247014 0.26662904 0.037739225 0.51816744 -0.2875899 -0.1302869 -1.2022115 -0.23494431 -0.59664553 0.6364309
便 -0.6101632 0.83900815 -0.13588256 1.2275915 -1.0073838 -0.048745826 0.09910418 -0.5219143 -0.6062492 -3.1926143 -0.5209297 0.21565658 -1.3685213 -0.8728665 -0.5757427 -0.9410347 0.6040071 2.1750607 0.6293745 0.13793145 0.4656462 -0.7450849 1.2687174 0.8688843 0.21701401 -2.1561987 -0.9789152 0.035942193 -1.1653947 2.4900007 0.9924475 0.5229343 0.018447412 1.789397 -2.3512228 1.3221467 1.2109394 1.4161116 -0.38962096 -0.21216735 0.38374734 0.4209531 -1.1645427 0.7415069 -0.2714775 0.49273273 -3.5389507 -2.7213428 -0.12253525 1.0178695 -0.13325366 -0.2372447 1.0901749 0.8564585 0.52566653 -1.177629 -1.174812 0.8220683 -1.1635121 -0.1171947 1.4896283 1.0731572 -0.5976757 1.4499208 0.27682838 -0.7871698 -0.20406558 0.5107308 -1.4764291 1.3754106 0.29574272 0.81425154 -0.005232569 1.6020243 -0.7297607 -0.24347663 -0.48555404 -0.27228105 0.44687757 0.8427223 -0.5305906 0.5514808 0.4487696 -0.68355054 -0.6676725 0.211281 -0.8291291 1.8068626 0.40637943 -0.21654706 -1.7815795 -0.96319145 -2.40065 -0.015343758 -0.3937415 1.0373671 -0.12283287 0.47107142 -2.1463854 -0.6222535
发 -0.03622078 -0.19706032 0.64743507 -0.3916638 0.77991766 -0.6846548 -0.015535142 0.012911014 0.74664927 -0.15564644 0.80699265 0.46064413 -0.75820583 0.2645343 0.5555574 0.59339416 0.72279114 -0.64270633 -1.1640999 -0.7867598 -0.024925072 -0.10605314 0.3321127 -0.0037188022 -0.6727927 -0.7682798 -0.22590384 0.32313314 0.039987218 0.992324 0.20603848 0.90825707 0.32833108 0.44163263 -0.24503587 0.4270756 -0.72581595 -0.071296856 0.26775172 0.583212 -0.47583368 -0.2878578 -0.8497193 0.08249556 0.015293864 -0.84863615 1.2695874 -0.054121304 0.6937709 0.07469352 0.59890884 -0.0008156878 0.39285076 0.04677425 0.5400904 -0.070956856 -0.42046362 0.6161721 1.0641797 0.36279076 -0.34904617 0.22415121 0.20384508 0.9240326 -0.5744622 -0.8567934 -0.5270832 -0.29987082 -0.008547204 -0.100259826 0.22926363 1.6948894 0.36020082 -0.11939524 -0.09719134 1.1308193 -0.34335348 -0.6508883 -0.4515109 -0.7453336 -0.39998928 -0.63504857 -0.18459898 0.7581085 -0.5599314 0.16338219 -0.14896671 0.7433866 0.29571995 -0.18387528 0.6081754 2.1069965 0.29555145 -0.46668187 -0.7956004 0.25672483 -0.3562408 -0.8320633 -1.9904397 -0.3536019
肢 0.7091089 -1.0355563 -0.18397015 -0.50899154 0.9533461 -0.055857148 1.8667417 -0.4614097 -0.5018265 -2.7015867 1.4939029 1.4286435 -1.731356 2.429078 -2.090568 1.9291844 0.044894908 0.25029063 -1.4440047 -1.8945017 -0.32106978 -1.5773579 2.8786464 2.9750311 -0.19024149 0.52285045 -0.09749592 -1.0774252 0.99475473 2.274838 -1.3664147 -1.2611803 -0.25157353 -1.6974076 0.0073378854 -0.24937056 -0.38826528 0.33683467 -0.57543796 -2.1645837 0.41608083 0.005141427 2.2868686 -0.4869239 0.48352402 -0.8214926 2.217146 -1.7680148 1.2990685 1.5705065 -0.1235768 1.2628913 -0.4766288 1.0029151 1.1509522 0.30791602 -0.041677292 3.0416093 0.6771463 1.6823801 0.08167002 0.45083517 -1.4369138 1.5979531 1.1748245 0.634755 0.60714734 1.2529758 -0.29540652 1.7991695 -0.9516532 -1.6357106 0.9609416 0.6454766 -1.6802402 -1.675614 -0.2559741 0.48665202 -1.6318055 0.13836914 0.7256358 -1.2781968 -0.4398205 1.1890762 1.2723079 0.09323415 -1.0554518 0.53246814 -0.24122679 -2.4949257 -1.4758995 -0.98502773 0.63565975 0.025862014 0.70471066 -0.022869015 1.2357653 0.6554941 -0.20372911 -0.70009094
脉 0.90875345 -0.5167121 -0.5567143 0.3865326 -0.6771936 0.3862707 0.56454784 -0.32144415 -0.004782322 -0.12764484 0.32861963 0.9301602 -0.8685715 0.9664751 -0.32106674 0.23761317 1.7401745 -0.62561476 0.2209066 -1.1664809 0.017317448 -1.9364784 1.5751576 0.82649857 -1.3293202 -0.043024458 -1.3595462 0.013488811 0.14758126 -0.1214986 1.1286739 -1.4445425 -1.6377041 -1.0747695 -1.3179896 0.22410895 0.24668923 1.9932504 -2.2714882 0.6464412 0.8384947 0.2915004 -0.51454335 0.13658483 1.0103413 0.20365775 -0.29203802 -0.3629865 -0.36189044 -0.7513832 -0.24068278 -1.0339295 0.4257485 1.1119751 0.6206699 -0.48814684 1.8854104 0.42511067 -0.13479197 1.252174 0.5909445 2.3733807 0.5319999 0.33668494 0.14157535 -2.087183 0.76773643 1.2035779 -0.13582847 1.1139143 0.89946616 0.07151719 -0.65968037 1.2855785 -1.1002823 -0.38577995 0.31196204 -0.61401653 1.6492847 -0.377365 1.5406268 1.1043 -0.04448912 0.29722986 -0.57603306 1.2609857 -0.7591081 0.023616446 -1.3547481 -0.71679384 -0.052574415 0.587163 -1.1466252 -0.21358676 0.20559728 0.35812566 -0.36141688 0.8349002 -1.8072453 -0.17871523
肿 1.2546339 -0.20066597 -1.1713003 0.9025213 0.57066476 -1.1450149 -0.9588318 0.37223384 -0.26307943 1.0564983 0.07702216 0.61546373 0.022003472 1.1943032 1.055925 1.7824591 -0.51686335 0.95387703 -0.20000279 0.5193876 -0.5508688 -1.6262904 0.7018512 -1.3931327 0.85274124 -0.52957124 -0.46086797 0.2658578 -0.12911464 -0.67324966 0.64684093 0.4096879 -0.06208341 -0.83484465 -0.8192631 0.20655648 0.5147291 1.1692215 0.6751546 -0.19849826 -1.2995592 -0.06743398 0.37400466 -1.5896671 -0.46782184 -1.4385803 -0.8048226 -0.17651805 -0.28177142 0.71828496 1.0939037 0.47397745 -0.21949711 1.0150859 -0.30208087 0.56598127 0.46297643 1.7717912 -0.05209888 0.20114075 0.5026204 -0.43620348 0.7896243 0.88650405 -0.33653826 -1.7494502 0.8759517 0.26515922 0.37363145 -0.84538686 1.5724611 0.49274048 -0.4030794 0.7410189 1.0908614 -0.65251774 -0.080906294 -0.024780048 -1.3511102 0.69771177 -0.23768166 -1.1374587 -0.36330947 0.16942742 -1.4385344 0.9803952 0.11393563 -0.5343444 -0.4482412 -0.740835 -1.0757115 0.032937694 -0.43492103 -0.5363073 0.75424445 -0.6499496 0.6173313 -0.5496724 -0.50159746 0.07407907
调 -0.5586422 -1.9428449 -1.2957236 -0.8119059 0.2196703 -0.16072068 1.1451182 -0.016727952 -1.9873251 1.690023 0.27748176 0.2944824 -0.28171822 -1.9898735 -0.7621848 0.83586437 1.1717172 -0.95595443 1.0399625 -0.15161349 -0.32636297 -0.5963941 -0.24706054 -0.54699713 0.36871442 0.37341732 -0.78706366 -1.128528 0.71682084 0.2873202 -0.06232169 -0.26153758 -0.17767175 -0.3961016 0.8182886 0.38914406 0.29040742 1.1846665 -0.2760371 -0.2736226 -0.5638491 -1.4214296 0.5603793 0.013982683 0.5489159 0.18751618 0.6154057 0.2865826 -1.1591061 -0.4896415 -0.64481187 1.0931429 -2.0338697 -0.055763666 -1.5410749 0.6167237 -0.44330102 0.4204681 -0.2547502 -0.25942138 -1.6179701 -0.69410956 1.9060167 -1.1042197 -0.18698446 0.12423077 -0.44913614 0.21652661 -0.14161685 -0.08943904 0.9574979 0.0007744182 -0.299795 0.423927 -0.91400534 0.6018175 2.5305493 0.76178557 0.6989243 0.14213149 0.08412307 1.1717342 -1.0578219 -0.55400157 -1.0457902 0.71381956 0.49173346 0.054707985 0.23439686 0.09051969 -0.37829888 1.5029066 -0.19159085 0.41636783 0.5909451 1.7679709 -0.24469638 0.27789605 1.2179059 -0.6699582
而 -0.5923697 0.4681495 -0.07461977 0.07888381 -0.2113927 -0.14500904 -0.057433654 0.95215476 0.043771423 0.43469355 0.03354114 0.8391661 0.04727396 0.09381326 -0.5092162 0.37264994 0.30590707 -0.6776375 0.33087027 -0.09855864 -1.0113612 -0.23166074 0.7333972 0.23221487 -0.09955632 0.0076617515 0.32764566 0.43058455 -0.66835576 0.5025332 -0.00061408174 -0.5437194 -0.47336468 0.47320205 0.6521503 0.5602696 0.44470412 -0.22871818 0.36710036 -1.1713578 0.82943946 0.88772655 0.6500607 0.38807905 0.11315056 0.35232994 -0.28117496 0.36231077 0.4475191 0.2481893 0.5029239 -0.41008186 0.7156806 0.3622768 0.38363773 0.108411185 0.80482554 0.7934733 -0.8485886 0.335138 -0.54738086 1.7034881 -0.26769456 -0.13777694 -0.3701752 0.13000226 -0.18248698 -0.13277097 -0.15158589 0.74264234 0.7655193 -0.63880545 -0.16737965 -0.5436902 -0.37311068 0.0839918 -0.40978307 -0.46785513 0.21812168 0.74026376 0.21044284 0.17447728 0.1177817 -0.009269212 -0.107410796 0.2729831 -0.05968861 -0.113686785 -0.014525797 0.2582875 0.53856355 0.95464134 -0.44636855 -0.55678177 -0.3473564 0.07435582 -0.44940838 -0.06452809 -0.9302795 -0.32417685
赤 0.18580511 -1.626492 0.9634592 0.69787395 -0.8417495 -0.24756075 -0.5458596 1.9805046 -0.2653037 0.6774447 0.020809183 0.347523 -1.3740723 -0.75367326 0.23559459 -0.18142882 -0.2426166 0.170679 0.3978116 -0.046065018 -1.0966125 -0.89444023 0.6128948 -0.43843412 -0.025779251 0.7994307 0.6944304 -0.72139645 -0.08122918 -1.2216135 0.8179769 0.14917053 0.09452904 0.05754396 -0.879429 2.101909 0.024180926 -0.72187805 0.7220246 -0.87289923 0.0028538883 -0.45858935 -1.1156942 0.91324604 0.9318296 -0.49077684 -0.52542824 -0.97467375 -1.0555995 1.3007753 -1.2141017 -0.12095221 0.068786845 1.2646449 1.1158388 -1.306698 -1.7832601 0.90556544 -0.8649138 0.1768278 0.4422104 0.2633873 2.047322 -0.46800667 -0.53215706 0.024136504 -0.959224 -0.9500518 -0.15015276 0.066913374 0.9429665 -0.33219567 -0.79395396 0.3726435 -0.05846935 0.59786963 -0.6158568 0.5553973 -0.019997178 1.4177126 -0.5715595 0.37375107 0.2219952 0.3348696 0.857433 1.5537851 -0.38727146 0.694491 1.1416149 -1.4451122 -0.378007 -0.79513687 1.2962074 -0.92763263 0.47778633 1.3204379 -0.91368467 0.8540016 0.32665297 -1.3250881
无 -0.39502457 -0.8969235 -0.13377407 1.6093003 0.8301341 -0.81077385 -0.55122685 0.2963255 -1.7348257 1.4719638 -0.4692265 0.567505 -0.9244656 0.5640146 0.79874057 -0.052436836 0.23036154 1.3599257 -1.2490741 0.897968 0.2536537 -0.8790619 0.5498327 -0.7810381 0.15276352 0.3924172 0.7989872 0.42440805 -0.68445206 0.7595818 -0.33800828 -0.8253132 1.1067517 -0.6086488 0.016351666 -0.8759723 0.39816824 1.6893183 -1.2451072 0.6142984 -0.1821818 1.0135592 -0.5119865 -0.39444035 -1.5040349 0.46278548 2.86545 0.4652116 -0.76809144 -0.4189497 0.45518318 0.7537557 -0.4810544 -0.06288164 -1.4000347 -1.3345958 0.09378895 0.0205252 1.2740597 1.1242672 0.6916693 -0.64068353 1.0397115 0.3772676 0.35971785 0.43306488 0.1955595 -0.03918406 0.060625568 -1.2758683 -1.2417227 -1.6106095 -0.73941696 1.671736 0.5980078 -0.7494086 -1.5966007 0.17235003 1.4993972 0.14632243 0.6434997 -0.63027316 -0.7804163 0.9383999 0.15568286 -0.55422187 0.037778813 0.9321048 0.36070582 -0.36209974 -0.18117805 -0.8105559 2.3593524 -0.18163596 -0.69874436 0.5248236 0.115820825 0.017455097 0.03041897 -1.3081719
口 -0.7880472 0.36735317 -0.1925409 -2.4613183 -0.54225874 -1.5226891 -0.37630334 -0.0073254053 2.231093 0.70428604 1.1128827 1.2732484 -0.7985155 -1.5440896 -0.5896471 0.6682334 -0.008473429 -0.102735035 -0.038259856 -0.76069623 -0.541631 -0.37137663 0.765211 0.9954578 -0.86689574 1.6482004 0.88583446 -0.51355284 1.5841372 -1.3832191 0.45989186 1.9388577 0.92457324 -0.24556486 -0.14606161 0.20326746 2.0344532 -0.580179 -0.40660942 0.43912536 0.6663635 1.7997733 0.9259942 1.6222429 -0.15544242 -0.84549665 -1.0318664 -0.15702666 -1.8208559 0.3499878 0.86736196 0.5777302 -1.2403716 0.7606572 0.6190794 0.14906254 -0.4826187 -0.3690042 2.1090167 0.39387697 0.2821485 0.5371993 1.8270135 1.7344272 0.92322814 -0.5996503 -1.2328105 -0.031698145 -1.8467486 -0.14392617 0.8886072 1.1647774 -0.05843858 0.16167755 0.62749445 1.4634856 -0.57511884 0.22239387 -0.07012346 -1.3827772 -0.04354609 -0.120109975 -1.4083405 0.6450635 -1.9540849 -0.34855998 -0.028413774 -0.6630274 -0.925091 0.12934452 -1.3608238 1.4264218 0.8910775 0.24236168 -0.5388604 -0.6614939 -1.1146349 2.148109 0.09299238 -0.26309708
腰 1.0077951 -1.597297 -0.5353836 0.09470834 -0.054876156 -1.6615734 0.7302086 0.36683717 -1.1481081 0.46822876 0.05551766 0.58412194 -0.37602437 0.5279393 0.76553553 -0.4148865 -1.7168043 0.7912743 -0.5168564 -0.9107732 0.5744357 -0.7837236 -0.40372905 0.29385075 -0.4919604 -0.16816954 0.109344274 -0.32508224 0.757512 -0.4649384 -0.48698685 -0.1941207 -2.0002146 -1.8677783 -1.3781853 -0.71828437 -0.815618 0.07058991 -0.04619759 0.27349228 -0.675727 -0.42620534 0.77961314 -1.0798671 -0.075918876 -0.7873837 0.6494782 0.42677927 1.0882478 -0.3236873 -1.2882786 0.242396 -1.3119241 0.14604403 0.26492643 0.07844228 -0.19868413 0.70876455 -1.0119846 -1.3291534 -0.31448025 -0.529626 1.0716447 -0.7583688 1.2011911 1.212403 -0.89211184 -0.68896645 -0.46954823 0.847394 -0.04413792 -0.11036617 0.53033596 1.2918254 -0.7905511 -1.3295832 0.03533642 -0.52380705 0.48596707 -0.3476309 0.20620647 -0.008996478 -0.34490114 -1.423304 -0.32337126 0.37620285 1.1218871 0.30557925 -0.39046264 -0.3969623 -0.20266959 0.92714524 0.20085435 0.58048445 0.15004309 1.4928993 0.91924846 -0.9512464 -2.2999415 -0.40700912
久 1.1201322 -1.0519483 0.047534052 -0.51256126 -0.31742308 1.9015213 -0.6756026 -0.17470008 -1.7198755 0.5103045 -0.9902334 0.5597286 -0.020674666 -0.12738612 -1.5700054 0.22907114 0.4156844 -0.7106726 0.9634788 0.6108486 0.7467352 -0.56776273 0.71251184 0.9419549 -0.29830998 -0.4908751 -0.6539098 -0.40697464 -0.7278741 0.751785 -0.33108827 0.9647549 -0.12964208 0.8377803 0.27237675 -0.5220313 0.39865547 1.0764744 1.0180159 -0.9712297 -1.204155 -0.068890594 0.30703035 1.0342014 0.45244744 1.3837955 -0.057958424 -0.83287245 0.41806155 0.8350657 0.6427519 1.1187195 0.008597947 -0.070717365 -0.2799854 -0.27462834 -0.075990364 0.6968149 -1.365535 0.23843227 -0.03898231 0.35115948 0.8990221 -0.044766065 0.48281923 0.352748 -2.3301697 0.06979824 0.32581723 -0.31634736 0.101944976 -0.0049925284 -0.0043426603 0.6872069 -0.3681346 0.8711411 -0.73387957 -0.10167576 -0.6692526 1.0746269 -1.0101105 -0.55189526 0.24816653 0.51315904 0.085189015 1.8761694 0.3455598 0.8234275 0.021416392 0.04318781 0.19733877 -0.6443104 0.8295552 -1.2266185 0.5372283 0.23244151 1.1952648 0.1273624 0.118024684 0.70897865
少 -0.7092798 -0.98737574 -0.28823757 -0.37529796 0.23704715 -0.29768974 0.48879173 -0.18602394 -0.6772624 1.0101389 0.89601517 0.73549396 -0.23264588 -0.62691975 0.34915176 -0.80624205 0.47687358 0.6000743 -0.15595375 -0.13893844 -0.602362 -1.3973553 0.016688595 -1.2665074 0.15298958 0.85310316 -0.1889924 0.9300276 0.9534499 0.8536819 0.65773493 -1.1491196 0.9135484 0.5171529 0.46505517 -0.6346921 0.5774721 0.8256548 -0.6365573 0.39530322 -0.86371577 -0.060444668 0.7200211 -1.1530273 -2.169186 -0.642929 0.5652089 -0.27734247 -0.10308732 0.086750805 0.89989936 1.5483137 -0.39240772 -0.06949148 -0.87624365 -0.5358739 0.37994692 -0.7626995 -0.13204727 0.91830975 0.74909383 0.20143281 0.3267825 0.25140953 -0.09677019 -0.07074978 -0.78008926 -0.33984244 -0.6990932 -0.58448327 -0.47342622 -1.3845663 -0.96384156 0.9090222 0.2587374 -1.0428244 -0.63564557 -0.46062514 -0.764048 -0.3655432 -0.25836945 -0.0691984 -1.1344464 -0.9559877 -0.0037378576 0.47690696 -1.0624781 -0.22066043 0.5803489 -0.49052405 -0.43897116 -0.5299642 1.4370447 0.06950792 -0.08332919 0.8265218 0.048217062 0.7900262 -0.52819276 -1.9067992
四 -0.11244257 -1.1510133 -0.9494472 -0.5875036 0.05822072 -1.4744477 0.36418778 -0.96552205 0.029258601 2.1107063 0.5843925 -0.6429463 -1.6005433 -0.97003585 1.0823302 0.3167365 -0.004699313 0.66727793 -2.3678815 -0.0780193 0.5254727 0.036194123 -1.2631129 -0.9629888 -0.39025718 -0.73087394 -0.21767351 -0.03922902 0.32046202 -1.1102349 0.61967295 -1.3590082 0.73188585 -1.1913627 0.34519732 0.15950288 0.66648304 2.4022763 0.53746194 0.9602109 0.2930006 -2.1197479 0.5863686 1.7060459 -0.839423 -1.2195877 -0.2959989 2.1092534 -0.39122295 0.5575631 1.4590664 -0.9545507 0.02096467 -0.6092648 -2.2711802 -0.8924542 -0.040739853 -0.63672656 -0.025135249 -0.96343106 1.4667279 -1.5770347 1.5064163 -1.3799237 0.84195447 0.5793055 -1.8705801 -0.015444391 -0.38413122 -0.88968915 1.2847635 0.9900267 1.3337342 1.6409948 0.038262438 1.5270497 -0.16037786 1.0662241 -0.47894704 -0.44899997 0.165896 1.0349075 -0.74936795 -0.7193372 -0.7639817 -0.113903806 0.42222112 -0.4857489 -1.32279 -0.45449603 0.9785109 1.0750656 2.1635273 -0.7646597 1.1266407 -1.1502727 -0.694265 0.064474456 -0.50503594 -0.4577776
身 -0.0055026915 -1.0152522 0.4976197 -1.0836684 -0.98569125 0.17781802 -1.0678792 -0.60200524 -0.46967095 -0.7511496 2.2901108 0.7293799 -0.21495593 1.3812755 -0.24421805 2.8134198 0.48656 0.5118008 -2.6174664 -0.53074324 1.1404518 -1.0628986 1.8113921 0.7386485 0.5552782 1.0115563 0.96928084 1.2326183 -0.67774796 0.016862579 -0.01714836 -1.7026336 0.10601514 -0.3470302 -1.0035595 1.0946584 -1.9302286 0.49590385 1.1098126 1.2645353 0.6553466 0.3060244 0.15109456 -1.0349969 -0.60036427 -0.95807534 0.724171 -2.6787927 1.2738352 1.0963192 -0.83105654 1.4359217 -1.3623468 0.016482119 0.5952424 1.5671365 0.6224878 0.99350095 0.78390425 -0.6229793 0.05273163 -0.66492546 -0.66578245 2.0194066 0.6037985 1.0205251 1.1580724 0.8886711 0.80912024 -0.30247682 -1.3339669 1.4400072 -0.8632662 1.185417 0.16076426 0.58521837 0.39229283 -0.3924372 -1.7473161 -2.026282 -1.0828531 0.57354355 0.20881204 1.5847191 0.14520341 1.0821948 -0.13731404 1.5971482 0.6994106 -0.0434745 -0.24240746 0.51340824 -0.8023817 -0.48767012 1.0014731 -1.148412 0.68675274 0.90142864 -0.2771798 -0.16945049
多 -0.90201396 1.4363068 0.42361197 -1.0418134 0.8444615 0.3807008 1.3378289 0.1950661 0.38107172 1.4173255 -0.46480677 1.2386857 -0.90053236 -0.8883106 0.03895808 -0.77181375 0.025427464 -0.9083718 -1.1866152 1.2421807 -0.84288895 0.8306856 -1.2057372 0.18546996 -0.40960565 -0.5329668 0.058504075 0.9580746 -0.22269234 -0.43620417 1.5158952 -1.0914073 0.37680516 0.98006517 -0.04851492 0.4824825 1.4674942 0.7531031 -0.4721286 -0.3882033 0.34131303 0.10032393 -0.9902148 0.49038294 -1.186847 -0.30498013 0.053112667 -0.13710295 0.5893566 1.2022767 -0.52613354 1.0949537 1.6840587 -0.4496627 -1.1615181 -0.66682667 0.81444544 -0.2585834 0.5970954 -0.85717356 -1.3774652 -0.2639522 0.13813701 0.2746114 -0.84196055 -0.2057531 -1.7500815 -0.6840273 -0.71685714 1.1375747 -0.2861076 -0.40084332 0.43707672 0.03976904 -0.72047096 0.26561445 0.5121565 0.26826742 -0.18332636 0.017216792 -0.39763963 -0.0630971 0.14063238 -0.38922125 0.30787957 -0.52598345 -0.6302055 1.2945845 1.2211199 -1.2543743 0.46907237 0.37033203 0.5178926 -0.27897465 -0.83662456 0.9513381 0.06940512 -0.5092342 -0.27390373 0.33246565
闷 0.18761821 0.07344228 0.011815803 0.21115279 0.67838514 -2.031606 0.38118356 -1.6239339 1.1434021 1.238392 0.72013324 0.75625753 -0.9112363 -0.64777845 -0.16320892 -1.6015071 0.21329916 -1.3419341 -0.078351885 -0.7426377 0.08634646 -0.57968795 0.2528566 0.9180883 -1.1125326 -0.4678218 0.059000187 -1.5183319 1.438889 0.5508162 -0.49542382 -0.614705 0.7015405 0.09755397 0.6771913 -1.899879 -0.66100305 -0.6087944 -2.315301 -0.14760365 -0.45415503 -0.846087 0.67337257 -0.2836555 -0.6882707 -0.665789 -1.2635849 -0.57195795 0.42494246 2.4840524 0.93532825 0.10262046 -0.44161743 1.3617431 -0.71501946 -0.80217206 -0.58360326 -0.24505548 -0.49769902 -0.5684777 0.6514363 -0.123716176 0.057342354 0.3714487 -0.100974075 0.9718023 1.329805 -0.19005646 -0.021154579 -1.4642744 0.987198 -1.371265 -0.20661762 0.12879016 -0.9237191 -0.12544645 -0.4955137 0.61928815 -0.6430889 0.3479818 -0.429252 -0.3221978 0.008438356 0.53880095 0.19978172 -0.6255133 0.1120117 -0.10273693 0.6989606 -0.07274554 -0.15615863 0.17329818 0.73499745 0.18821627 -0.26584953 -1.0997642 -0.28224492 1.4968129 -0.48571724 0.705296
胀 1.1792318 0.41596878 0.10471456 0.80824465 0.28769746 -0.71054554 0.21073067 1.1950154 0.41316175 0.58416915 0.6285536 0.53141284 -0.3816674 -1.188249 0.17605264 0.294414 -0.13323721 -0.72415036 -0.26264018 -1.8656614 -0.8207709 -1.4650986 -0.55700547 -0.5238744 0.61876965 -0.22365221 -0.62236816 0.03907753 -0.7248919 0.3472125 0.6816808 -0.5494706 -0.64316726 1.5429046 -0.8969342 -0.020162033 -0.7645437 0.69638693 -1.2108635 -0.24213652 -0.5634221 0.5903583 1.7793596 -0.12167265 0.9606955 -0.58620745 -0.34974802 -1.346954 0.8421417 2.0708356 0.8411154 0.6995195 -0.36966977 0.46379805 -0.3800208 -0.13192153 0.38603407 0.11201809 -0.46272963 -0.44937348 0.7859101 -0.2693458 -0.33778903 -0.39626265 -0.5102585 -0.9846189 -0.37342763 0.9657067 0.5750508 -2.037157 1.5803595 -0.6156364 -0.73950225 1.1092106 0.7459907 -0.48919824 -0.24853016 0.111630574 -0.95101976 0.66437954 -0.5278656 -1.1047977 -2.2897882 -0.51227295 0.24031696 0.26583675 -0.35149595 -0.7519587 0.6111539 -0.44306064 -0.23879005 -0.91862565 -0.405176 0.7464997 1.704979 1.2480768 0.038663894 -0.08223983 -1.503115 -0.4129786
劳 -0.34410775 -1.7587049 1.1247342 -1.5342425 -0.08455598 -0.11171726 2.2565753 -0.12311005 0.31069782 0.84386003 1.0420051 0.89775985 0.17040853 -0.46593687 0.44872767 0.7457276 -0.06871916 0.1600564 0.16054605 0.70815295 0.8164648 -0.01870104 0.5320425 0.06913538 -0.50850934 -1.110699 -0.08369079 0.9584214 -0.4971411 0.25107196 -0.3895216 0.21489164 -0.08481545 -0.76329595 1.2752115 -0.5157149 -0.82688403 1.179439 0.032425806 1.2024863 0.2348474 -0.29999527 -0.033720247 0.901063 -0.85637045 0.29172054 0.029732073 -0.17975856 -0.68891186 -0.35495406 0.054731753 1.0347705 -0.51633084 -0.94283444 0.6198331 0.6636869 1.0849926 -0.9202565 -1.3033761 0.2572518 0.3984238 0.2068742 -0.7290328 -0.14829095 -1.0008854 -1.2685705 -1.3802694 0.15107995 -0.54423773 -0.10477007 -0.9957069 -0.9306178 -1.370326 0.5465867 -1.8101484 0.7231181 0.06659282 0.20396096 0.10197021 -0.820198 -2.4148097 0.35196066 -1.4850684 0.58888173 -0.23411347 0.035167232 0.41783777 1.0209221 0.6489985 -1.8653787 -0.67682683 0.83587307 1.0732875 0.5117477 -0.66379577 0.4068964 -0.6508083 -0.17815271 -1.4271369 1.3109208
大 -0.34344488 0.8611654 0.038784925 0.678497 -0.13107155 -1.039923 0.036953837 -1.1939939 0.17242631 1.3035635 -0.5684674 0.14173771 0.08401611 -1.2084215 -0.18878798 1.2272748 0.9720038 -0.22785166 -0.20775287 -1.2433008 -0.5298653 -0.5587015 0.43569508 0.9961367 -1.2352914 0.5969933 -0.60081506 -0.19534452 -0.5868851 -0.84589595 0.16488515 0.9191895 -0.5884338 0.58228064 -1.3406669 -0.30051082 0.82643706 0.4499034 0.17609206 -0.7226447 -0.75650626 0.4717812 0.7376545 0.377386 -0.08410865 1.1237639 -0.67228585 -1.070505 0.569949 -0.42288622 0.9377212 -0.17921874 -0.8977836 -0.07924483 0.144074 -0.7051189 0.46582744 -0.12282408 0.26574564 0.43854502 1.0419667 -0.70786923 1.181549 -0.716523 -0.14800066 -1.3461884 0.24440387 0.3788852 -1.0521075 -0.67075896 -0.04646193 0.69683087 -0.11784869 -0.71997744 0.6157682 -1.2746289 0.1376533 -1.2283206 -0.13994509 0.6582179 0.6665699 0.877021 -0.013328068 0.034726072 0.32442495 -0.15969266 -0.45501047 1.1400377 0.981747 -0.62548566 -0.91628766 0.65085524 -0.55906606 -0.59780836 -0.018187026 0.98874396 -0.17819954 -0.35699698 -0.3821471 -0.12618813
阴 -0.1488222 -0.16425116 0.96875083 -1.1056819 -0.7601958 -0.5332241 -1.2399399 1.0365858 -0.9505576 0.33069223 -0.6601783 0.7449981 -1.0705754 0.55443287 0.345041 0.78036904 1.1141903 0.5566109 -0.3474261 1.6477631 -0.9434523 1.8637726 -0.46286827 -0.6247445 -0.6136574 -0.53612536 0.70980227 0.965315 0.04868836 0.4466788 -0.6550386 0.16488013 -0.48797905 -0.20369855 0.40273243 -0.33721396 0.89235395 -0.5412256 0.5010961 1.3845489 -0.30365422 -0.31681585 0.112452865 -0.3638739 -0.15845636 0.39728397 -0.24570897 0.79812926 -0.5056605 0.43666652 -0.68086636 1.8493872 -0.6429142 0.29811984 -0.23128656 -0.123923406 0.16910903 0.87577087 0.5366462 1.5647107 0.6578832 -0.35204053 0.065630615 0.39309707 -1.3450291 -1.8771293 1.3964943 0.23048589 0.5443339 -0.74345183 -0.8582329 0.6291853 0.66998166 0.5270628 0.48033673 -1.6548573 -0.7040712 -0.26662573 1.2176032 0.4337686 -0.7055026 -0.5452008 0.09547202 0.4664769 0.45075774 0.72468007 0.24327347 1.0047262 1.5139524 -0.0023380716 -0.05630351 1.3255035 -0.76812804 0.5649942 1.4392508 0.01633358 -0.57740474 -0.14354378 0.12136882 -0.66498685
女 -0.40238228 -1.842082 -1.1700485 1.20203 0.19505511 -1.3625963 -0.7863226 -0.2080775 -1.0922576 -0.22998068 0.5120736 1.352485 -0.16012672 0.12476811 -1.1230637 0.7677775 2.1073625 -0.5599379 0.12705481 1.837601 0.7860759 0.90556574 0.19175194 -0.43206918 0.14745645 -0.23132588 0.15063351 -0.4732062 -0.4011177 -0.25489494 0.3181429 0.7128832 -0.3872096 0.77102906 -0.55152756 0.31552967 0.23148263 0.80562407 0.92581457 -0.22424982 -2.7665102 -1.111179 -0.063095145 -0.060575776 -1.3333502 -0.44658136 0.9172839 -0.6410779 -0.8730811 -0.82222265 -0.501857 1.0178137 0.17725532 -0.40776873 0.3771763 1.2778136 0.24188802 -0.39421308 -0.48987356 -0.4310481 0.25266868 0.5271058 0.57513183 -0.8566209 0.0894447 0.65152377 -0.7716666 1.0358217 0.88717616 -0.3204328 -0.70049626 -0.013154045 -0.69306135 0.40843624 -0.58014935 0.09952867 1.4319148 -0.10889589 0.8935107 0.16216363 -0.42128527 -0.9626922 -0.797817 0.39182842 0.22269511 0.4352693 0.049961444 -0.018829105 -1.5001013 -0.48397854 -0.17504965 0.80449706 -0.6746991 -1.0674297 1.2432972 1.7920681 -1.2488607 -0.37757272 0.9433257 0.9549012
痰 -0.9990762 0.91485447 -0.9693908 -0.55696845 -1.0792711 0.23717514 -0.54109496 1.1078683 -0.9425101 0.22288296 -0.98128664 -0.42588064 -0.35909793 -1.224505 -0.55837023 1.1380197 0.6691373 -0.43615943 0.13760309 0.3987153 -0.44340423 -0.68601483 -0.35904813 0.090281025 0.34351322 0.23796421 -0.18569335 -0.57945496 0.0962465 0.2461918 0.71328413 1.2092354 -0.0073816096 -0.3013138 0.009575313 0.11798307 -0.57445407 -0.82147634 -1.6334465 -0.24113372 0.45469433 0.8916986 0.5144648 1.2386453 0.27024278 -0.8660636 -0.36017558 1.3837631 -1.6844186 -0.1700012 1.6032844 1.3474944 -0.49812245 0.7136178 -0.6260421 0.42338592 0.24579014 1.514936 0.19325499 -0.7028798 0.9553479 0.1911772 0.0976178 -0.9134395 0.99916065 -0.02684578 0.2626499 -0.80865717 0.3883127 -0.645295 -0.65137064 1.772469 -0.3530319 -0.6577926 0.45869252 0.10013837 -0.11672855 0.24204694 -0.852043 1.5256202 -0.6222879 1.0365975 -0.41645715 -1.1688685 0.43418512 1.3129094 0.89088625 0.636136 -1.2091786 -0.96167225 -2.1981723 -0.30294016 1.2030541 -0.7156352 0.12744512 0.19605759 0.49661133 1.5830829 -0.12290418 -0.14322543
积 0.8952426 -0.691057 1.0194434 0.95433956 1.0010874 0.3179515 0.51963747 -0.6883429 -0.09294596 0.8399311 0.12128654 1.0306484 0.7323296 -3.1376631 -0.8761335 0.27745938 -0.040534142 0.03360276 -0.3018476 -0.25069284 0.7810951 -0.48819247 -0.9549247 -0.8318624 0.16775405 -0.056558415 -0.22529955 -1.0074706 -1.344374 0.68183637 0.8905586 -0.23061903 -0.39155865 0.29794157 0.60831195 -0.88109714 -0.61796314 -0.19228487 0.107063934 -0.26527393 -0.25451517 -0.9190063 0.7446805 0.6364256 1.3089156 -0.5878874 -0.4170976 -1.5813577 -0.55788106 -0.04985283 0.2024573 0.5542921 0.172236 -1.2774895 -0.8788877 0.039093982 0.39982635 -0.05249121 -0.66468614 0.38797548 -0.40120786 -1.2628512 -0.8984621 -1.3633401 0.9922252 0.25053045 -0.62655705 -0.3365298 0.5402583 -0.13590695 -2.2198274 0.7382523 1.2442616 0.6204334 1.7558112 -0.5652497 -0.2140483 -0.035053812 0.11584515 0.37800604 -0.9361355 -0.62883425 -1.5668162 -0.5420332 -0.31254816 -0.32268688 0.5021654 0.49223888 -0.39127034 0.09724287 -0.9387284 -0.90270025 0.38350633 0.26430604 -0.25831476 0.1477497 1.4946235 0.24828774 2.1726835 0.26167342
时 -0.41473976 -0.8301103 -0.06841401 -0.21751115 0.7035461 0.9877996 0.61811644 -0.56629705 -0.07829089 -0.30742678 0.7250963 0.72959757 -0.8101396 0.3475535 -0.6075667 0.028938929 0.37272272 -1.1180873 -1.0100732 -0.85995334 -0.77838606 -0.6930654 -0.58148545 0.7839373 0.17540649 0.5448917 0.043141928 -0.15042518 0.3735429 -0.28967807 0.090243116 -0.023062078 0.09417718 1.2161101 -1.052867 1.1943691 -0.14028734 0.1132571 0.064851105 0.11922347 0.059656877 0.61499494 0.418632 -0.05476951 -0.52702427 -0.22030714 0.6627619 -0.3548187 0.20520583 0.76992095 0.47336423 -0.014542065 0.57222295 -0.30787227 0.63846195 0.13896878 -0.46359968 0.6343301 -0.5726515 -0.38648948 -0.48174348 0.56564003 -0.32424146 0.30207807 0.80913895 -0.05526224 -0.09978289 0.015237026 -0.7601659 0.26835597 -0.14678945 -0.23599762 0.4054859 -0.42251894 -1.0383914 -0.6529515 0.17665026 -0.048846602 -1.2026919 0.53108543 0.17016174 -1.2343215 -0.6477001 -1.189653 0.30084246 -0.22993685 -0.086315066 0.1802157 -0.2407369 -0.056681696 0.17718005 0.8646856 -0.2651026 -0.40551883 0.2685845 0.1512507 -0.3371824 -1.1888655 -1.4110187 -0.9974099
生 -0.74767816 0.10762476 1.0193728 -0.040326454 -0.23353013 -0.4480969 -0.7733657 1.0277547 0.15933396 0.55829245 0.43444347 -0.14901222 -1.0652691 0.28643724 1.521781 0.2633357 0.6423314 1.382671 2.018036 1.4246571 -0.53929603 0.04788944 -0.33384943 0.5877896 -0.34666517 0.95750606 1.0062611 -0.091695644 -0.66119397 0.702036 0.13892932 0.5707379 0.13677268 -0.7181728 0.64104676 -0.8984515 0.96291 0.42926818 0.9309459 -0.46669504 0.33945376 -0.14459066 0.49942568 0.114186846 1.6704153 -0.36663985 0.22217837 -0.3985606 0.0038221607 0.1910534 1.068239 0.21369974 1.0316133 -0.18854703 -0.7402065 0.06463065 0.05563574 -0.19788587 1.2484702 1.5373101 -0.45166868 -0.058089856 -0.7260952 0.59559965 0.55774 -0.33527955 -0.6944014 -0.03912934 0.81290305 -0.25880185 0.34695208 0.23460405 -0.50619066 -0.17716217 1.5190753 -0.13679436 -0.44649383 -1.1849 -0.38573614 -0.7312449 -0.39925262 -2.1305728 0.09494905 1.147016 -0.8733566 0.9034733 -1.0000045 0.23338185 1.0568736 1.0830966 0.701551 -0.779414 0.5274919 0.82099557 0.10328513 0.69611174 -0.83700985 -0.055329595 1.4903442 -0.3963876
足 -0.37472996 -1.9247501 0.014567968 -1.6568787 0.2707504 -0.37544495 1.3165238 0.9369286 -0.14209165 1.1277621 0.9341043 -0.5144963 -1.3441199 -0.34838223 0.5993632 0.9315993 1.1071762 1.0290428 0.54898965 -0.90673935 -1.7150321 -1.7369543 1.1709331 0.52068824 -0.20127425 -1.277371 -2.1900356 -0.3629327 1.2302778 -0.029546034 -2.3107789 -1.8363619 -0.18093236 -1.3178555 0.12691668 0.45085114 0.22632645 0.5941057 1.7211273 -0.6101181 1.0121009 -0.9603227 -0.7106126 -1.6977363 0.1563497 1.144706 -0.946077 1.0393127 -0.735535 0.9245142 -1.079753 0.8236614 0.40155333 0.12313698 -0.03289717 -1.2947321 2.3858151 -0.21381718 -0.30799508 -2.233706 -0.70535403 -1.0881813 -0.2037567 -0.6017266 1.0800474 -0.09756625 -0.954108 2.576462 -1.0827713 -0.06535681 0.39034587 -0.93370205 1.4619579 -0.52936274 -0.03612108 1.3339511 -1.6478535 -0.90246916 -0.31695142 -0.8096653 1.2476528 0.28993145 -0.09290898 0.03793949 1.5468838 -0.8817897 0.6923251 -0.29717422 -0.17835397 -0.7282813 -1.0243405 1.2020625 -0.054887995 0.87053627 0.47892886 0.8783169 -1.6592268 0.7404837 0.48451382 1.1733536
吐 0.13839625 0.07069677 -0.08339153 0.51533866 0.8870748 0.046132665 1.1269565 -0.4740559 0.5970005 -0.20188887 -0.13751912 -1.573649 -0.468062 1.0349416 0.41008803 0.63361746 0.6408593 0.62928474 0.5312824 0.36561367 0.7896964 -1.6819575 -0.70859665 -0.3012228 0.27850214 -1.7447727 -1.0175236 -1.6548356 -0.6762209 1.1190826 1.1839224 -0.7159042 -0.10315621 0.30462357 -0.9758172 -0.427181 -0.7476778 -1.3605195 -0.58367866 -0.20511305 -1.3378273 0.023132881 -0.43891165 -0.1844033 -0.3500139 0.3559147 -0.86773235 -0.8750993 -1.6639848 0.12775144 0.8745222 0.48205286 0.044845708 1.4326061 -2.7129624 -1.8199672 0.8566448 0.71247345 0.094976634 -0.80808306 -0.56579554 0.51378983 -0.5210511 -0.11525157 0.7529472 0.9610016 -0.8769985 -3.0396855 -0.73444575 2.705435 0.38372558 -0.9340884 0.86466134 -0.43838608 0.71374494 1.4375097 -1.4425578 -1.1076472 -0.5266575 1.7854183 0.26569077 -1.2316334 -1.4069191 -0.8736856 -0.0600361 -0.1334818 0.38001436 0.6699749 -0.34445086 0.19723581 -0.66586816 -0.24142227 0.8029982 0.6966664 -1.1808465 -0.20196044 0.73705053 1.2186848 -0.4995313 0.51001185
疮 0.10325747 -0.6194179 1.0128127 -0.4764498 1.3961719 -0.8701234 -1.6840594 0.5226408 -0.7612666 0.2050832 -0.4680325 0.09002688 -0.3589348 -0.04497029 0.33639276 2.3429735 -0.3362484 1.2746878 0.77746856 -0.7049696 1.3746883 0.40946475 0.010885282 -1.3852783 0.69923764 -0.297235 -0.24027513 0.68133044 0.86029094 -1.5958889 0.8587793 1.0180708 1.3311673 0.5391626 0.47680882 -0.08426428 -0.0709643 -0.71132183 0.4527058 -0.5021591 -0.9915067 0.04141687 -1.1605341 0.08249244 -0.18579742 -1.0030162 -1.2486972 -0.021290947 -0.19261122 -0.20120199 -0.3570687 -1.1531249 -0.0462088 0.0122291865 0.1205184 -0.76751846 -1.5998203 1.0794969 1.1630937 -0.2601657 -1.0540866 -1.6350374 -0.75647014 1.8890849 1.3365729 -0.5711415 0.3414176 1.1540383 1.7835115 0.93229616 -0.29298586 -1.2316967 -0.17492415 0.94408274 0.8430284 1.0305318 -0.5949944 -0.035908412 -0.7159282 0.41758054 -1.1108932 -2.6450195 1.3534732 0.72414565 -2.2418323 -0.65579134 0.0005089012 -1.0490775 0.5596982 0.2766983 0.4926631 1.3435669 -0.020396836 -0.22769855 0.6559323 -0.111301675 0.8599963 -0.13606858 0.9428394 0.051447224
满 -0.24559568 0.31560943 -1.4409536 1.5825009 1.3058859 -1.018839 -0.82181036 -0.015854739 -0.32940462 1.1384841 -0.5486697 0.38816607 -1.1417929 -1.2072062 -0.08604095 0.056050606 -0.45438364 -0.32991758 0.42165026 -0.9711957 -0.3348031 -0.2332944 0.4110284 0.68123704 -0.4153826 -1.1607383 -0.36397132 -0.19835663 0.91903 0.9844531 0.621778 -0.55420476 -0.14703284 -0.09747396 -0.30079374 -0.37816024 0.07115349 -0.6232499 -1.0691938 -0.6611238 -0.8145124 -0.8943158 1.4337415 -0.7442826 -0.15831856 -0.21532337 -1.3706348 0.20726845 0.36339027 1.7680699 0.66568196 0.9349479 -0.7164246 1.2410029 -0.27756777 -0.92286426 0.34395003 0.97939557 -0.5309379 -1.4850967 0.26434422 -0.058022834 -0.8168244 -0.48138785 0.5114776 1.9692305 0.4867285 -0.8075702 -0.20873372 -1.5678544 1.042816 -0.6053188 -0.6931285 0.63807654 0.9286381 -0.7996845 0.29751498 -0.38833615 -1.3642459 0.99909043 0.7308231 0.45679298 -0.37794772 0.06151278 0.5245905 -0.8358898 -0.21748678 -0.6164947 0.29443917 -0.12511276 -1.9142694 0.74500835 -0.47405288 0.5526046 -0.6218974 0.6320848 0.96429914 -0.26599473 0.057416 -0.09841176
男 -0.11216579 -1.3409609 0.3058784 0.55195856 -0.018209256 -1.2238753 0.59795666 -0.17257291 -0.48584527 0.6320514 -1.8438205 0.5356352 0.10148077 -0.060251627 0.8453834 0.7422636 0.81971765 -1.0295902 0.20603938 2.7632718 0.87845075 0.8723829 0.955408 0.06299191 1.0595188 -1.7756404 1.0919603 -1.1911647 -0.3855853 0.23134165 1.0018616 0.8485316 -0.15996489 1.036879 -1.2680798 -0.015687808 0.6438839 1.4259944 -0.26276118 0.5134904 -0.74518764 -0.6902055 -0.37303436 -0.8192942 -0.0046085515 0.7903066 -0.5719389 -0.15090309 0.26013616 0.11295037 -1.2855781 1.4542004 -0.67361885 -0.40835467 0.47639248 0.051517848 -0.71152633 0.58034307 0.40158302 -0.18955736 0.9474209 0.46175325 -0.8132791 0.40400323 -1.2117385 1.1474963 -0.8930954 -0.97264767 0.67792594 -0.17952523 -0.51563996 -1.465465 0.13120827 1.0842214 0.2666636 0.7486738 -0.15425105 0.22068691 2.6066866 0.6193672 0.11724212 -0.88356555 -1.222752 0.9440908 -0.6870199 -1.0211877 0.43485403 0.058210015 -0.21030647 -1.9756294 -1.1344049 -0.05027063 1.0283409 0.31799427 1.0083057 0.073849246 0.052899823 0.15059069 1.5660992 0.60313845
急 0.05415216 0.3036326 0.17689523 0.35143572 0.68660605 -2.2280066 2.01094 1.4474386 1.0594579 -0.70513767 -1.7151439 -1.0806855 -0.96290916 -1.4558909 0.65168726 0.6223488 -1.0038399 -0.64768636 0.18023668 -1.131853 -0.5893903 -0.76135886 0.35927296 0.96772724 -0.6124002 0.36627486 -0.32485083 0.8837169 -0.9514997 -0.97139037 0.6196268 -0.048888225 0.29806218 0.7375477 -0.21936987 0.2425748 -0.7766799 0.110148855 -1.9940872 -0.7940991 0.4889873 -0.5918168 -0.4299212 -0.7900068 0.5436394 -0.42016682 -0.98817563 0.59729105 1.3091565 1.19023 -0.9631975 -0.4046575 -0.4486906 -0.029813904 0.26930553 1.0901047 0.8775377 1.9109291 1.1836742 0.34337676 1.1215204 -1.164276 0.2155201 -0.44998887 0.48117378 0.2902999 -0.18152705 0.6093848 -0.97765434 0.299254 0.90555966 -0.73120695 -0.39184195 0.8407336 -0.53215855 -0.069408976 -0.6702294 -0.114171736 0.7959328 1.0374815 1.0367233 -0.09360368 -0.14528082 -0.55085754 -0.2930313 -0.782401 0.4158892 0.08637927 -0.3796533 -1.0062621 -0.03228686 1.7700956 -0.64630544 -0.0965421 -0.4091578 0.100434735 1.2536904 -0.54562914 -0.5333262 -0.41227594
胃 0.73249596 0.13865057 1.3024905 -1.2937503 0.5687311 0.75214684 0.010757411 -0.015126056 0.06648764 0.31992617 0.28285933 1.0297942 -0.77847105 -1.0988014 0.50274044 1.9996741 0.68270534 -1.9511267 0.15664876 -1.5196849 0.7914241 1.3128461 -0.78034306 0.19198163 0.10071222 0.68637747 0.24497323 -2.125315 -0.83473086 0.17344242 -0.6668496 -0.25499332 -1.2402283 0.73350644 -0.8897126 -1.3970281 0.20895544 0.29598436 0.90963733 -1.3792897 -1.2623917 -0.85776126 0.7854336 -1.0745001 1.6027082 -0.9232796 -1.093644 2.0602207 -0.34465483 0.45978415 0.65134835 0.8269594 -0.9462944 0.6002154 -1.0059536 0.5081653 0.68880546 -0.14460227 0.20901833 0.9191675 0.42798212 0.16164775 -0.39231196 0.5374149 0.18161623 -2.108091 0.22293366 -1.1947976 -0.2706346 0.93322283 -1.9846044 -1.2390676 -2.0762537 -1.0658976 0.6958032 -2.1426723 0.7615335 -0.049593564 -0.95553446 1.5942272 -0.60636544 0.45519397 -1.7181058 1.0873463 1.5235032 -0.45960593 0.43849024 0.15014212 -0.46773726 -0.5181331 -0.47280803 -0.27581945 -0.82804435 0.5047067 -1.0187607 0.38794973 0.657089 0.59709966 1.3118953 -0.5176966
通 -0.9300185 -0.6463458 -0.91313434 1.2363919 -0.20324333 -1.0894992 0.7295117 -0.61572504 -1.3119088 1.4505587 0.08775357 1.0231297 -0.36153105 -2.0495872 -0.14768888 1.1363062 0.61093116 -0.27435595 0.51818365 -0.9243275 -0.007817831 -1.4963956 -0.46655974 0.6214764 0.23768234 -1.184279 -0.9280245 -0.53690416 -1.1270244 0.5467315 0.06744394 0.11720038 0.28914022 0.64789325 0.8507181 0.33529195 0.012589204 1.1373807 0.25690827 -0.6935447 -0.9970642 -0.7116621 0.41931435 0.014057294 0.27575222 0.046446476 -0.11506171 -0.22026911 -1.2414833 -0.085449524 0.34590703 -0.07684446 -1.3930011 -0.16298406 -0.2722598 -0.09460093 0.14398989 1.1012341 -0.54173326 -0.45093492 -0.14340127 -1.0227697 1.838474 -1.3052181 -0.06689229 -0.18494533 0.33941123 0.03546989 -0.2919402 -0.39406988 1.4941703 0.57811886 0.45188957 -0.15507351 -0.190713 0.26002675 1.3337604 -0.3400549 0.71564597 -0.26349837 0.19438592 1.2356424 -0.9326757 -0.41698182 -1.1554061 -0.19558945 -0.1324538 0.28677347 0.4108426 -0.1174882 -0.36840814 1.3817761 -1.1279634 0.16927898 -0.3412843 1.2729307 -0.64858294 0.029529793 1.2618593 0.041248906
有 -0.8043335 -0.6119482 0.26806772 -0.39347425 -0.15322377 0.068308555 -0.09028381 0.22446826 0.21067905 1.4635046 -0.26785934 0.8572123 -0.22796425 -0.7590761 0.3604991 -0.20662656 0.06487121 -0.52966845 -0.48875192 -0.26236376 -0.8279577 -0.9710594 -0.4187537 -0.5740876 0.79844123 0.41485775 0.20212401 0.43866175 -0.09375008 0.010571926 -0.44642645 0.33567846 0.15950459 0.5550355 -0.39272162 0.31749976 0.30402243 0.32940528 -0.28891826 1.7569554 0.50674874 0.65941757 0.19598302 -0.13359898 0.578471 0.1795219 1.2736233 -0.26960504 -0.27467778 -0.09643546 1.2723538 0.26432997 1.2302448 -1.2638294 0.19369514 -0.78875214 0.32629722 0.054321863 0.47323263 0.48620582 -0.41604626 0.8782208 -0.27987292 -0.68514204 -0.0164869 -0.010974517 -0.31816927 -0.14025551 -0.42317235 -0.549239 -0.06889074 1.3085345 -0.16307265 0.3186673 0.33213437 0.1816205 -1.0595719 -0.6737757 0.39727756 1.4339595 0.94789237 0.2599041 -0.22971193 -0.08111196 -0.1780282 0.16241476 0.33939993 0.25515413 0.1799357 0.11610857 -1.2288711 0.17553695 0.9152295 0.16269894 -0.5139355 0.25247818 0.07805656 -0.7441312 -0.6135919 -0.26404452
安 -0.34321892 -1.6466068 1.3634052 -1.9262828 0.49357647 -1.0678518 0.4460534 0.18670848 -1.2499381 -0.03904805 0.73986363 -0.43841207 -1.2918602 -0.6836009 -0.25798565 -0.12576264 1.1162347 -0.28905174 0.9875437 1.2700164 0.71810335 0.13477333 0.82073313 0.5831248 -0.6404946 0.8011256 -0.8716317 -0.26761568 -0.4026654 -0.1140291 -0.5209962 -1.5994244 -1.2131935 0.4626704 0.8284701 0.31118673 -0.7538631 1.5168614 -0.0148602715 -1.0686344 0.68251115 -0.89975893 -0.71920556 -0.48560137 0.43977308 0.93950397 -0.2504649 -0.41669247 0.8400716 1.0562835 0.09730704 0.76036507 0.28634354 -0.58146644 -0.15161689 -1.368027 -0.06895115 0.48590514 0.7484817 -1.4204901 -0.86037725 -1.7376293 1.0897893 -0.4523168 0.48943764 0.8985565 0.1833277 -0.9872832 0.97017705 -0.546518 1.7026011 -1.478236 -0.983038 -0.23077278 0.60857683 -0.009930784 0.07626457 0.97661537 -1.1574419 -0.042953633 0.9030872 0.07812639 0.8347536 -0.53289354 0.38722694 -0.25644964 0.22627896 -0.1635507 0.7211686 1.0210037 0.62953365 0.30062482 0.5234652 0.00605055 -0.54774636 1.1927174 -0.93464047 1.1477855 -0.22836924 -0.49963915
如 -0.81023765 0.17814516 -0.48542064 1.4980932 -0.44250977 -0.4747597 -1.7487512 -0.89977664 1.7471898 0.50300974 -1.5686245 -0.41511333 0.40156278 -1.00217 0.035582718 -0.5471989 0.11859343 0.22200866 -0.68433386 -1.6702346 -0.782818 -0.5464294 -0.66187084 -0.042850837 0.57692844 0.6434709 0.7922808 -0.6075788 -1.1072786 -0.24061404 -1.6568696 0.7346769 0.8542943 0.48274654 -0.27260375 0.9861213 -0.24706808 1.3483877 -0.71908206 0.2625507 -1.3344641 0.8691699 -1.6035607 -0.57439226 -0.69462126 -0.92778057 -0.18130985 0.9183687 -1.6853943 -0.60221565 -0.33117172 0.2633993 1.7022592 -0.23718938 0.8490881 -1.7014025 -0.8467107 -0.5443336 1.2757705 0.051912542 -0.3606406 1.2247732 0.7017135 -0.00901979 0.0033876144 1.2922461 -0.31104374 1.0198481 -0.667656 -1.870394 -0.20076105 1.5430026 0.30093533 -1.1366585 -1.0441934 -0.92976004 -1.6677921 0.8543722 -0.034289096 0.54887456 0.7565889 -0.41852608 -0.70452905 0.31689125 0.79469126 -0.040936925 0.7581754 -0.7391223 0.42731875 0.8137066 -0.23379996 1.2690969 -1.9002242 0.0068518785 -1.1981896 -0.28194717 1.2171916 0.33799067 -0.2224596 1.3887963
体 0.03863629 -0.754846 -0.6600362 -1.1779333 -0.2561164 -1.1390975 0.18760148 -0.7502492 0.14189203 0.24943218 0.87286144 -0.30897835 -1.2452339 0.19115318 0.51438695 0.25092095 0.53316987 0.32981947 -1.9565144 -0.5342797 -0.8189483 0.24155349 -0.2593814 -0.15294985 -1.0941077 -0.87289 0.59138936 1.131775 0.38689223 -0.21990618 0.533067 -0.44894347 0.0047634062 -1.4589651 1.2031199 -0.2178226 -0.41500834 2.11617 1.8004847 1.262301 -1.1871427 -2.06962 0.95889145 0.78437316 -0.85416377 -1.1477327 -0.37900916 0.49448168 -0.13350677 -0.073450014 1.9384314 0.495653 1.2627269 -0.7848406 -0.73425937 -1.1345669 -0.46735883 1.0904392 0.7634267 0.95184666 1.5078852 -1.1160384 0.4936634 -1.0326061 1.5893131 -0.16941132 -1.037342 1.5831515 -0.41079855 0.2635292 0.72866094 1.0797168 0.039566178 0.99631315 -0.9931672 -0.405005 -0.52498496 0.08899788 -0.58370996 -0.64010113 -0.4733255 0.73332417 -0.43455672 0.42930928 -0.774823 -0.3418872 -0.24107769 -1.268666 -0.43172434 -0.6863284 0.14001098 -0.42576656 0.36347875 -0.1498854 -0.3425097 -0.44684568 0.3797151 -0.32408515 -0.6192319 1.3485496
行 -0.85290164 -1.2578404 -0.43270183 0.35850424 0.69323945 0.059337303 0.38321647 -0.38322335 -0.8891636 0.23662476 0.5119914 -0.06658487 -0.9238287 -1.6291786 0.18841453 -0.09204653 -0.15490115 -1.1931719 0.73414767 0.09612654 0.04834435 -1.1810362 -0.13531269 0.115071595 0.025978887 1.2256328 -0.3054776 0.4471931 0.08837508 -0.2443801 0.0070002023 -0.4686254 0.14970912 0.04659464 0.022719836 0.70368904 0.055267464 0.809847 -0.13145651 -0.13562623 0.2402581 0.3072787 0.117987305 -0.31325045 0.52672416 -0.8184685 0.66755176 0.7946655 -0.3985486 -0.36541897 0.22795688 0.83098876 0.89733386 -0.054105654 -0.8811403 0.43271983 0.08802754 1.3316191 -0.7682693 -0.037397623 -1.0177453 0.42699146 1.0346406 -0.7485036 0.5625262 -0.16666786 0.6524161 -0.35100532 0.42735595 -0.057642527 0.88617724 -0.08839757 -0.07261212 -0.08235869 -0.89233196 0.22847602 1.7936779 -0.33839402 0.8044645 -0.7550783 0.34629175 0.051952332 0.44189212 0.20107284 -1.1344396 -0.45051804 0.668575 0.03780615 0.35442764 0.15625086 0.044457223 1.0887189 0.48435625 1.0437039 -0.050128046 1.6411852 -1.0292315 -0.55162734 -0.0048268195 -0.53525144
毒 -0.3956056 0.48359033 0.98249555 0.059336 0.76609975 -0.5046261 -0.61964554 -0.18257417 0.106342986 0.8922527 -0.5248384 0.027546303 0.17060591 -0.5927324 0.03788647 1.2488961 0.692689 0.55340564 0.7633633 0.84081405 0.46461123 0.9521676 0.9152303 -0.40011972 0.37934953 -0.5879155 -0.24397703 -0.5904659 0.3064353 -0.22211775 0.2654646 0.71790814 -0.3947934 0.3095126 0.435812 0.4490361 0.24776296 -0.8457434 0.85308725 -0.09651328 0.22394274 0.03716664 -1.0852231 0.39234844 1.3975567 -0.89551216 0.1335387 -0.32366523 0.39644444 0.13242921 0.76038253 -0.72343415 0.2654756 -0.66127676 0.319722 -0.79889137 -0.95902866 0.40025803 0.79814374 -1.6514195 -0.036300797 -2.4376392 -0.28895077 -0.64015925 0.16503538 0.014926595 1.2336215 0.8209215 0.6238415 0.01668886 -0.3504989 0.2247096 1.4602062 -0.35450965 1.5442911 0.33039093 0.1395902 0.3902454 -1.5204356 -0.04470856 0.03472769 -1.9764761 1.1631256 -0.6693539 -0.1855 -0.30857193 -0.22098128 0.12158219 1.3376766 0.05038129 0.094170995 0.4100377 0.4919642 -0.07424062 1.4037341 0.45979285 0.40865883 0.44263956 0.11206743 0.17809437
面 1.0311317 0.7872076 -1.2326626 -0.43437052 0.3902222 -0.66277575 -0.12036196 -0.30482876 0.35243842 1.3178874 1.1871561 0.11492518 -0.63868487 1.154418 -0.47687468 0.4713666 0.17378092 -0.5116995 -1.3672934 -1.0990183 -0.63899785 0.21460244 -0.16591136 0.03650458 0.37207386 -0.48125383 1.0720268 0.2745333 0.6250936 0.9086102 1.3097405 0.09307428 -0.6958634 -0.64498085 -1.4037806 1.4369061 1.0884902 0.279807 0.5425337 0.3072196 -0.3496946 -0.04462812 0.958006 0.7241596 0.07707575 0.29232222 -0.81781197 -0.13013394 0.5489219 0.09261226 0.07761812 1.1930954 -0.91698533 0.99052453 -0.082836896 -0.101240166 -1.1002481 0.9230622 0.79244304 -0.09552844 0.025488075 0.9156089 -0.5017203 0.3630091 0.7780492 -0.406775 -1.1606416 1.0044051 0.70836824 -0.028550753 -0.21141405 1.2840238 0.5964496 1.0273817 -0.35618427 1.381158 0.050169956 1.5039423 0.32655406 0.24238543 -0.7049277 -1.4207437 -0.22269341 1.7315087 0.12062343 1.0297536 -0.09787548 -1.0387696 1.4885137 -1.27164 -0.41411564 -1.1062076 1.2749112 -0.6854818 1.2065836 -0.47519335 0.31564894 0.60759526 -0.95417905 -0.22010459
脾 -0.39975357 -1.2270714 0.2725794 -1.4125293 -0.42696026 0.8851222 -0.85767573 0.16248165 -0.8582347 -0.497859 0.03019382 -0.38501117 -0.27209193 -0.3422274 -0.30900967 1.3474021 1.7630936 -0.8153111 0.94320005 -0.40418205 1.4058752 1.1508001 1.0486184 0.19218542 0.091734186 -0.54499376 -0.38020042 -1.7931418 0.28374982 1.0815206 -0.04629939 -1.4317918 -0.6250695 -0.38353044 0.33453494 -1.2592402 0.71434784 -0.25241986 0.108510494 0.13529585 0.20574352 -0.022840798 1.028734 -0.048375804 0.28837997 0.51381564 -1.208059 0.6829092 0.47451964 -0.51384014 1.2808026 1.0178131 0.09144605 -0.70824045 -0.38766122 -1.0331287 0.76375306 -1.1772935 -0.7456138 1.2292042 -0.9201474 0.6898595 -0.47420734 -0.63176817 -0.9716126 0.5477322 -0.098381154 0.18272366 -1.0840672 0.3261604 0.0045804195 0.8407187 -0.11314782 0.66291374 0.12650825 0.051358502 -0.13441755 -1.0534313 -0.016446654 0.44922742 -0.62530077 1.2654679 -1.2987396 0.033428267 -0.21725148 0.2076842 0.074369244 0.22289672 -0.50127745 -0.75593233 -1.0739242 -0.3311184 1.0702811 0.76653874 1.2327161 1.7498469 -0.38552228 -0.45040968 -0.6098379 0.9195144
之 -0.044957172 0.5671317 0.5487404 0.13411568 -0.068841465 0.28094304 -0.6284877 0.36315206 0.23677813 0.6515146 -0.575058 0.28463426 0.090707414 -0.42155838 0.38488373 0.4305516 0.39760512 -0.2662449 -0.095263235 0.6365936 0.07077418 0.88812786 0.21658033 -0.23497121 0.12044896 -0.313356 0.30163538 -0.3886455 -0.41852435 0.31455138 -0.80482924 0.37494078 -0.11425404 0.36915687 1.1452547 0.040362604 0.28194296 -0.012564109 0.83962315 0.36395696 0.39320832 0.9510915 -0.3870902 -0.15528576 1.2065836 -0.26934612 0.25503656 0.91105884 0.6204178 -0.30522412 -0.21673295 -0.16776347 1.5133324 -0.41531295 0.3035973 -1.0648507 0.95534223 1.3364707 -0.52666885 -0.025632158 -0.8360093 0.74475497 -0.27327606 -0.8096816 -0.35394135 -0.15808547 0.46033242 -0.32145813 -0.21091689 -0.3688359 -0.39214325 0.71679837 0.58175325 -0.15958446 -0.37861872 -1.3853762 -0.61370206 -0.033477932 0.9533827 -0.1781264 0.32750988 0.08164893 0.19216177 0.1398177 0.007826067 -0.07518857 1.1025311 -0.12024158 0.10450862 0.8078847 0.7394775 -0.029606124 -0.18965656 0.17999223 -0.5886204 -0.2436326 -0.4191342 -0.46958402 -0.6251284 -0.15904792
儿 -1.8744833 0.7685766 0.42525834 0.2760945 1.049152 -1.0178685 0.21105917 0.52602714 -1.0615122 -1.452005 -1.3479044 0.42246956 -0.5911865 -1.2676811 0.2939794 0.25394028 -0.0957121 0.25576177 2.3269942 1.1350228 1.6798933 0.36634314 0.50088644 0.2541036 1.3159591 -1.5043237 -1.0308039 -0.44210792 -0.8492628 -0.65390384 0.07500743 0.78110766 0.7943504 2.0362835 -1.3543786 1.5254536 1.2555622 1.4443692 -0.5331512 -0.47694594 0.8494055 -1.457887 -0.7900912 0.9633263 -0.8928548 -1.443931 -2.596769 -1.0231837 -0.2613329 1.2427144 1.1922652 -0.43051782 1.31388 -0.92906713 2.630272 0.1386211 -1.7745416 -0.58414036 -0.9806201 -0.8397967 0.71025276 -1.2364496 -1.4424942 -0.6136361 0.13336566 0.52933574 -1.8301634 -0.83652693 -0.038536195 2.119236 -1.3776813 1.0011048 -0.3733748 0.7536183 0.7426303 1.7569641 -0.17205302 0.5560622 -1.9095078 -0.112342 -2.2188191 0.065727904 0.76604545 0.011254487 -1.2757092 -1.2187049 0.77849925 -0.03582423 -0.85152256 0.24655768 -0.40084967 -0.33694044 -1.0866531 0.45908377 0.27809557 -0.5322755 -0.6971438 -1.0960411 -1.4419655 -0.7881987
一 1.4747634 -0.5685126 -0.017946424 0.9138074 0.6415869 -2.068833 -0.44504002 -0.83670866 -0.7403889 1.7961432 -0.2243639 -1.5219868 -0.81143165 -2.361761 -1.0967004 -0.45560414 1.3484038 0.7541958 0.5977152 -0.14441271 1.4487473 -0.74995416 0.17092994 -1.3027351 -0.42515397 1.000598 -1.8498807 0.12427297 -0.17860578 -2.6976206 -2.0112395 1.3336599 1.3610793 0.46869814 2.1953285 1.7709821 1.2393551 -0.14327818 -0.24284247 1.160511 -0.053224325 -0.6682717 -0.48153508 1.7062873 0.18852772 1.9073781 -0.5937614 -0.2107771 0.039439138 -0.8183818 1.0578715 0.9466307 -1.5689175 -0.3713615 0.11404521 -1.179766 0.47216576 0.42787108 -0.48725998 0.34887007 0.5389406 -1.1217072 2.309147 -0.34496504 2.613465 -1.5741544 0.030435542 -0.07436808 -1.9965951 -1.6550314 0.25807986 -0.46547967 0.5812663 1.0627474 0.18878764 -0.66113925 -1.732226 0.098065004 1.6891752 -1.5485777 -0.35893404 -0.5410446 -0.27969286 -0.7683192 0.9685163 -2.4514542 -0.6455846 0.888664 -2.503938 1.7207899 0.9163987 0.49235618 2.2219522 0.46302998 0.7057644 0.53783005 -0.4290919 -1.7251552 -1.5115714 0.54705644
黄 -0.65368265 0.28542006 -1.1444938 0.32160458 0.38073915 -0.74246895 0.17877811 -0.274769 -0.5489504 1.7483546 1.0223722 0.034519475 -1.5747912 -0.25641894 0.36100256 -0.008055545 0.5926254 1.6571006 0.6053821 -1.6929452 -1.3769455 -0.9236392 -0.5107291 -1.382856 -0.7204171 -0.041457575 0.82006 0.01476901 -0.09676411 -0.27811393 0.99088305 -1.1964264 0.970838 -0.67324483 -0.15916479 0.06788058 0.11990564 0.08635109 1.3965917 -0.81813 -1.3965456 0.77725923 -0.6634768 0.21657452 -0.13188142 -0.22967722 -0.5261826 -1.2735642 -1.7244203 -0.28044608 1.7370175 -0.28620028 -0.10236426 0.06891744 0.3694335 -0.3117939 -0.56475043 -0.14773329 -0.49697453 -0.30093023 0.62086564 -0.78160983 1.2317322 -0.355751 0.59795827 0.10369308 -0.13924012 1.6892877 0.40965253 1.8487414 0.40776548 0.09691594 1.0061429 -0.2587153 -1.0651952 -0.26240215 -0.06053705 0.87512046 -1.1854964 0.093720384 -0.10368319 -1.3269575 -0.25367072 -0.4165248 -0.38098615 0.094672464 -1.2472916 -1.7044792 2.531474 -1.3848042 -1.4479111 -1.4096005 0.95720977 -0.20023355 -0.5230246 -0.7495476 0.5466432 0.57726604 -0.63712573 0.24762511
逆 0.0047617615 1.1030996 1.5640612 -1.967015 0.099948406 -0.22351117 0.30064642 0.7906849 0.9194246 0.08754307 0.34449545 0.050787516 -1.2818925 -0.6290476 0.49750844 -0.28610948 1.5523071 -0.4725459 0.043523204 0.020233946 0.15089788 -1.4251089 -0.51921433 0.6348326 -0.49134576 -1.5625304 0.14129004 -1.2576145 -0.29163766 0.74648803 0.07080779 -0.9781155 0.63663274 0.51414675 -0.2592214 -0.40711775 -0.8225256 -0.44091666 -1.0996364 0.10390969 -0.40250427 -0.48087567 0.5035528 -0.27700728 0.102753095 -0.00035450357 -0.72574985 -0.36546597 -0.42195523 1.9649609 0.3709694 0.8036992 -0.68646 0.784886 -1.6014612 -1.0283357 -0.11099383 0.35573342 -1.1351933 -1.1687868 0.84963965 0.35956085 -1.5516573 -0.5151434 0.053056587 0.07196684 -0.32722008 -2.6245122 0.31724465 1.9137943 0.35744962 -1.6227951 0.13611066 -0.25385442 0.609222 0.21092908 -1.0691816 -0.89900804 -0.016692357 1.2116061 -0.025165278 -0.008192652 -1.1682066 0.6835571 -0.09974889 -0.22299334 0.03329875 -0.49946174 -0.51336884 1.6141983 0.025980925 0.4527589 2.1385734 1.6171939 -0.7075259 -0.55159384 0.21976772 0.9113176 -0.17829238 1.0389551
病 -0.5936375 -0.878737 0.50228214 0.464196 0.8511718 -0.013519864 0.021223687 -0.43252775 0.45181924 -0.0051969597 -0.39362592 0.85399866 -0.05903861 -0.18077986 0.34675443 0.055482566 1.3511357 -1.3473917 0.15789397 0.06302242 0.60654294 0.60056406 0.2704543 0.10743423 -0.17340164 -0.9849016 -0.5865266 0.37077084 -0.14512016 -0.24229014 -0.69963026 0.41322723 0.26767743 -0.03892032 0.87238747 0.52153903 0.43857256 -0.46897787 -0.58910507 1.3300731 -1.045228 -0.3376279 -0.5314093 0.7199794 0.5516913 -0.048300907 -0.07522922 0.24692978 0.45406902 -0.06468495 0.3783144 -0.13625826 0.3596077 -0.5134196 1.2756397 -1.0684646 0.15990031 1.2373732 -0.73279166 0.47976288 -0.25401452 0.024311086 -0.7846417 -0.14637622 -0.40790913 0.25716373 0.14096192 1.1908375 0.14114079 -1.0162383 -0.71613985 -0.5462244 0.51021045 0.3834182 -0.9480619 0.8297402 -0.5281505 0.17201027 0.43634903 -0.7882423 0.4032533 -0.12383675 -0.37188607 0.39287126 -0.07980065 0.30197677 0.056322012 0.66051626 0.055596955 0.1671757 -0.29244542 0.21538793 0.6742978 -0.61098295 -0.6996111 -0.11267229 0.24221161 -0.43177167 0.26743838 0.4723794
